"Axis.1"	"Axis.5"	"Axis.3"	"Axis.17"	"Axis.24"	"Axis.19"	"Axis.20"	"Axis.4"	"Axis.9"	"Axis.6"	"Axis.2"	"Axis.10"	"Axis.8"	"Axis.14"	"Axis.18"	"Axis.23"	"Axis.13"	"Axis.26"	"Axis.11"	"Axis.83"	"Axis.39"	"Axis.22"	"Axis.30"	"Axis.45"	"Axis.49"	"Axis.29"	"Axis.12"	"Axis.25"	"Axis.21"	"Axis.65"	"Axis.16"	"Axis.51"	"Axis.7"	"Axis.27"	"Axis.84"	"Axis.28"	"Axis.46"	"Axis.33"	"Axis.75"	"Axis.35"	"Axis.86"	"Axis.43"	"Axis.15"	"Axis.80"	"Axis.59"	"Axis.63"	"Axis.48"	"Axis.73"	"Axis.68"	"Axis.37"	"Axis.71"	"Axis.44"	"Axis.56"	"Axis.38"	"Axis.36"	"Axis.74"	"Axis.53"	"Axis.32"	"Axis.54"	"Axis.66"	"Axis.127"	"Axis.103"	"Axis.81"	"Axis.132"	"Axis.34"	"Axis.102"	"Axis.116"	"Axis.92"	"Axis.105"	"Axis.64"	"Axis.61"	"Axis.88"	"Axis.82"	"Axis.104"
"Y1"	-0.0601381789465423	0.0249818963253441	4.08802637441804e-05	-0.0071162260330369	0.0167582158343229	-0.00112756827253845	-0.00398151185859358	0.00532634959502478	-0.0349414768998573	0.0101162246815232	0.011877579254176	0.00190230308983085	-0.0120533373983518	0.00115386469822337	-0.00514732618726538	-0.00359293957088135	0.013812288397894	-0.00389351571256669	0.00672382070783644	-0.00154706635438452	0.00132498181454851	-0.00660620940358558	-0.000876456690667008	-0.000342674510165476	0.00146275012230936	-0.0107772068343953	-0.00222034243202991	-0.00414384921812507	-0.00536157602656215	-0.000615076326717867	0.00272678064095017	-0.00396213708035353	-0.0113178335366105	-0.000701626303831246	0.00401180937574032	-0.00637133584345338	-0.0016060694710855	0.00210907897974163	-0.00398534618141685	-0.00293362091602629	-0.00157395936611182	0.00444292060545662	-0.0114527722633209	-0.00491802386764467	0.000693683248087997	0.00524544924492213	-0.00093741893613703	-0.00225895526000167	-0.000420194553408991	0.00834303599006442	0.00482215926334488	-0.00206478238996635	-0.00430305728119634	-0.00818006206069216	-0.00434416690878321	0.000383273529379852	0.00661726898752204	-1.61624585091494e-05	-0.00323153894944246	-0.00467907195439203	0.00598073993294299	-0.00760917499460846	-0.003372737513899	-0.00228144672618444	0.000422112164232225	0.0020985664204252	-0.0014918001077264	-0.00288498096788109	-0.000395907336131115	-0.00184024882352845	-0.00658319003822312	0.000557368557346444	-0.000623704408572709	-0.00124033963355487
"M1"	-0.0483370486048357	0.0239577807473361	0.0208229055619516	0.00582013327143312	-0.00199278316005615	-0.0131503151984459	-0.00900974929017989	0.00660914459728151	-0.0243918998826374	0.00500845566575576	-0.0156113106724243	-0.00658580875716112	-0.0103984427882797	-0.0146132729331898	0.00325994173745076	0.00237429362611777	0.0114868551530185	0.0106825569153044	-0.00902567936474771	0.00215855849922201	0.00267861594161936	-0.00176108840276237	0.00416850412622776	0.00484466859466758	-0.00046465746871753	0.000166713250675755	0.00954075176237355	0.00840513798721346	-0.00516812914713715	0.000486703371690867	-0.00316172498652376	-0.00402573419704028	-0.00557062767171975	0.00222251565959049	-0.00261209484366228	0.00671050752609555	0.0075053900397567	0.011135977263107	0.000998320562788715	-0.00468479341958077	-0.00463761978440562	0.00105769802629416	0.00542254912268558	-0.000655167187724344	-0.000523689255848117	-0.00130616813316586	0.00445537706382609	0.00369006800500687	-0.00246272320967926	-0.00506749118851335	0.00284372079985943	-0.000767751568070119	-0.00144247371147464	0.00854959304200468	0.0114822833563659	-0.000779457767124905	0.00254685076017824	0.000677449733151955	0.00550814673490798	-0.00480565579119788	-0.00255322954370688	-0.00101548448313476	4.37159313879077e-05	0.00468959800652184	0.00286252176653611	-0.00215094442010202	0.0017026119667698	0.0005830412105008	0.00433182785368141	-0.00283904041133003	-0.000807458943356293	0.000657433430550734	0.000551282483214607	0.00667933574585379
"M2"	-0.0734439726765469	0.015178561743688	-0.0062546840324738	0.0139946627954994	0.0119198382569994	-6.2715063358189e-05	-0.00075386441502443	0.0212647130283441	-0.0140006593642619	-0.00529489847592005	-0.0167723975276532	-0.0167711207528624	-0.0146947044294431	0.00081739839121374	-0.0140538685350462	-0.00483568412559314	0.0185141402357977	0.00280356498028187	-0.00442790824511191	-0.00494916058613095	-0.00367993781793352	0.0114420337174717	-0.00729893462551305	0.0072628040034413	0.00298937707023737	0.00366258043967958	0.0118173989361358	0.0108334372965426	-0.00837115535660407	0.00269858055835603	0.00668428227930302	-0.00926814788315385	-0.012495580716885	-0.000422420749460379	0.00516275153276732	-0.000757367882531215	0.00281330349129657	-0.00890045468536376	-0.00282829767400624	0.00628931776001253	0.00234195606179615	-0.00023834861667036	0.00998633902893053	0.000902423560868115	-0.00270491621794988	0.00561258286996261	-0.00334963553893855	-0.0040197803746132	0.000831212103261761	0.000379095831570412	-0.000887864432237622	0.00296992830335101	-0.00404142124081431	0.00844133268387505	-0.00939914355171674	-0.00379201167259127	0.00296270521168279	5.10968535868545e-05	-0.00348057558154837	0.000871305125528863	0.00163623107566135	-0.000414413448382964	-0.00179836652986892	7.04336785795135e-05	-0.00250367437927584	-0.000273852742043762	0.000691856585628873	0.00182778307343655	-0.000894829891225265	0.000230508132095187	-0.00101756861338188	-0.000773866469743211	0.00890052683032033	0.00131047737058338
"M3"	0.0103863836477767	-0.00691189377334163	0.0351206788688103	0.000791744155161252	-0.00421566100766797	-0.00146486988035387	-0.00206869512922943	-0.00317344236882635	-0.0098120266031792	-0.0284673136861583	-0.0498465324909819	-0.00314779832196682	0.00828763459800543	-0.00119732390641447	0.00450616799542361	0.00327348166080476	0.00994227299032913	0.00680431150119604	0.012427181722093	-0.000769776357901605	-0.000135673603224692	-0.0172643682494295	0.00675330635124724	-0.00246896181000162	0.00883607573967752	0.00246196958793548	-0.00283483155490875	-0.00756545550134271	-0.000349245414266713	0.00445070924805168	0.0153634184769324	0.00614114692315301	-0.0135692666071349	0.000689132571910155	0.00305949296472876	-0.0130315213532638	-0.00528537893120571	0.0131378875016705	0.00401782283037442	0.0083657343927136	0.000964698573266249	-0.00269650329973224	0.00783982679139127	0.000418384716054318	-0.00193318572782906	0.0022053239331089	0.00578295575861131	-0.00137556887459418	0.00187341702461494	-0.0107555120547641	-0.000177892631376633	-0.000500669165864966	0.00304666461590469	0.0108640207320742	-0.00209152681127382	-0.00622664513985258	-0.000663570114131387	-0.00328841258254212	0.00819595184001519	-0.00363156084621893	0.00318581231222719	-0.0022782628756372	0.00439615188046919	0.00132458826222532	0.000985282542668725	-0.00414867000927068	0.00390621180260525	0.00274995769194677	0.00255274444286453	0.0012430635730525	0.00391742650583986	-0.00162399043515126	0.0109189306355209	0.00058714057177359
"M4"	-0.0564657873091561	0.0347341916179174	0.00407308889098957	-0.0192341636287623	0.00927179207823554	-0.0116900775055256	-0.00522482386318053	0.0028386644597836	-0.0143271288150668	-0.00827262551537023	0.01114857741781	-0.00109624145440458	-0.0052681693283844	-0.00999141053217675	-0.0084757730519718	-0.00106786546483811	0.0130931685028818	-0.00540416197329237	-0.00591014666342883	0.00236395746870561	-0.0029642976722558	0.00710147675666113	0.0113856262142567	0.00151596769011858	0.000208932522417266	-0.00163441920058276	0.00761064184386588	0.00452059013760927	0.00478316168213722	-0.000101706689841464	-0.0122791070377847	0.00332195511279774	-0.0121476239991926	0.00649632991740432	-0.00145578963541686	0.00237071045320039	0.000254041869216646	0.00371867248081789	0.000290770795467707	9.70826815548075e-05	0.00486734955307387	0.00117272416632086	-0.005655373428019	-0.00151792834489159	0.00196861645898944	-0.00516407103240442	-0.00395965959016784	-0.00202584628645235	0.00303433864953145	0.00165344468599649	0.00772690245872873	0.0047946792549133	0.00186420316046154	-0.00167241991084745	0.00211992207832171	0.0049549167026442	0.00275111339582018	0.0053495320956313	-0.00463637997439615	-0.0011796415021731	0.00208834707414359	-8.79759213264019e-05	0.00264607482192523	0.00566238260757907	0.00793814010838114	-0.00192028952571726	-0.00448667705582585	0.00613818382447725	0.00207150096921814	0.000612450859832864	-0.00587201328041059	0.00186368760502977	-0.00707974561379846	0.000975425604431226
"M5"	-0.0219466855987068	0.00388585352551639	-0.114975548475225	-0.00914858733835751	-0.0379334040868662	0.0149187493196157	-0.036605965235491	-0.12553933529371	-0.00226360084882829	0.0123847528173582	-0.0824621165223145	0.00314448798675766	-0.0110258559919043	-0.0087729434448983	-0.00104498750296243	-0.0160545378477115	-0.000874654775906854	-0.0108616749912894	0.0111479974266917	9.51108061304286e-05	0.00931059597899977	0.00385469935230209	-0.0151751343311105	-0.00150757700182887	-0.00239822010675413	-0.00251694548344118	-0.00331343508157495	0.0370318862273279	-0.0093904096230622	-0.00017406223991961	-0.0105851961286611	-0.00056226646625297	-0.0217185653122525	0.00584501728483627	0.000282901321852046	-0.0359516879637073	0.000725766841706496	0.000602403269340605	0.000844218106004314	-0.000891335570523325	0.000237642355661872	-0.00450046259906592	-0.00431093942151768	-0.000570266103802528	-0.00175400901191904	-0.00160330555920893	0.00477200346255087	0.00109010115009855	0.00028970233956631	-0.00293654939094513	0.00145321316226894	0.00677548697660761	-0.00271506251262672	-0.000632451458078596	0.00156870240269363	0.0008270302793409	0.00190014502081051	0.00731166539740924	-0.00296282319339621	-0.00052266087198241	0.000200591550861518	-0.00044375152966104	0.000351027293937419	7.27571667109834e-05	-0.00166721263146467	9.22160571383656e-05	0.000102742874691983	0.000514334043032378	0.000130626185543723	0.00171331531555878	0.000399955726914097	-0.000777627759066272	-0.000962077094132856	0.000138973408616025
"M9"	0.00501511032955538	-0.000987332250117943	0.043692527697631	-0.0108283456059476	0.000188704893505647	-0.00856782114058365	-0.0057347596491101	-0.0101194526990581	-0.00448488764814988	-0.00831754405355438	-0.03083783968697	-0.00253889850738368	0.00957387052131976	-0.00782843478626478	-0.00582723431707441	0.0104354514487245	-0.00195123185223728	-0.00576963946206164	0.0208985155244115	0.00027258487730882	0.000358649792128544	0.00892798629210859	-3.50024094157885e-05	-0.00705848725602307	0.00540379741269842	0.00360544249453486	-0.0121724666546411	-0.00189741197473876	0.00658160075549226	0.00405226534313201	0.00101294028489227	-0.00538828941398749	-0.0147414339232782	-0.00212169583395761	0.000416916215010319	0.00547264526072918	-0.0040289569614766	0.00495227169352643	-0.00115115421593518	-0.00351317323946891	0.000441746080785017	0.000222434463028464	-0.000500632771746907	-0.00143473991360941	-0.00398431923604435	0.00170339744036928	0.0058334268674153	-0.00395277367702372	-0.00354445500378837	0.00542567891253854	0.00255464858661993	-0.00489805538605464	0.00228394988601384	0.00483271468230361	0.0017734612937551	0.000412538355253298	-0.00299226102292955	0.0067756479409536	0.00422062144401819	-0.00526001044322663	0.000431119568720721	5.2429610446901e-05	-0.00119726122068315	6.67224415456618e-05	-0.0013292275067861	-0.00260953368063947	-0.000322890210906625	-0.00320714502619614	-0.0012305984617919	0.0053467221765092	0.00550255889705489	0.00302567119953204	-0.00282704056292104	-0.00280048468249066
"M10"	-0.0035309557298435	0.0206272277565533	0.0264420442202634	0.0035072466911639	-0.00225897550453047	-0.00263022549684779	-0.00173724007317948	-0.0137296819888842	0.0136579098989591	0.0178601420256388	0.0178417856299184	0.0141195084910927	-0.0148349340679997	0.00220908995563758	0.00544579188497095	0.00729905301377414	-0.010267917812351	0.00669528481878006	-0.0294078352017033	0.00020634819618433	0.00195719203100538	-0.00259147213675931	-0.00764361896532088	0.00303432509190113	0.00722292626165638	0.00175340180685035	0.0176437797057584	-0.000323720187809396	-0.00987322088076317	-0.0033830275126936	-0.000443360416129578	-0.000108655475276214	0.00274239797357342	-0.00456192830193305	-0.00210711499012742	0.00411362100793594	-0.00450068698997823	-0.0037687887047772	-0.00975929913584236	-0.00620265190754767	-0.000148404202286695	-0.00431097107017341	-0.00173629254677389	0.00235309248556118	-0.0103585122926024	0.000227479837841976	0.00320483134026802	-0.00183839460266129	-0.00420883645683413	-0.00432210555369751	0.000878470448634555	-0.00165396438468785	-0.00210981518530578	0.00563233794771355	0.00172677526537996	-0.00608648650597658	0.0021703809357711	0.00587084988061196	-0.00940024735196774	-0.00431818263627061	0.000405692582884629	-0.000236084387102464	-0.00122392680164818	-0.00235616621427574	-0.000488940677825427	-0.00250033692407067	0.00207173992467771	-0.0017104648608239	-0.00241330529969259	-0.00101196001705001	0.00155345492770748	0.00163534352784399	-0.0029143907140656	-0.00122678291399678
"M13"	-0.0588622755948552	0.00260007616448272	-0.0341648440759854	0.000844441330938045	0.00230155821390488	0.00958008879563924	0.00681240488429535	0.004829198577305	-0.0261853461562778	0.0208818398758344	0.0407025764426153	0.0337847052563799	-0.0187912223117025	0.0303587866372985	0.000865866359819691	0.00461129355512497	0.00538711310134908	0.0110635401437065	0.00331560825607245	0.00114761950872794	-0.0074706569744866	0.00949087125178468	-0.000452508684255343	-0.0014436547236538	-0.00123716404070141	-0.0062190724657918	0.000145702565612663	0.00681959877436792	0.00313405358565864	0.00242082321966475	0.0319740746434993	-0.00321862397779639	-0.0261799762690979	-0.0139413779323608	0.000789000691465997	0.00144603609091078	-0.00543231267684354	-0.0136102401139086	-0.00226150048282818	-0.009381257002404	0.000219095674165612	-0.00230169609265418	0.00342913330622622	-0.00604958236302531	0.00318780360495401	-0.00441647451266193	0.000389716588446221	-0.00306904628808488	-0.00584511710855982	-0.0154481059515971	-0.0031784197056355	-0.00600351449433864	-0.000790868496861836	0.00495465220680226	0.00921094289681193	0.00383142659279427	-0.012139551327366	-0.00105613662306654	-0.00163614369171739	-0.00140853444610184	0.00244291584578226	-0.00221891787426002	0.0069990111212372	0.00379126111267461	-0.00253694974561252	-0.00149310971357702	-0.00236441728228209	0.00525807917059698	-0.000457518197671154	-0.00283135830635384	0.00383317225946539	0.00255808238820227	0.0038230130895908	0.00117071625813984
"M14"	0.0493397338104212	-0.0204900272713713	0.0140305885356583	0.009314991313453	0.00207225741843218	-0.0108827537646003	-0.0123213685503796	0.000921971258661845	0.00997491644907347	0.0216581689712313	0.0347983273482692	-0.0144645718627424	-0.00333503743115446	-0.0176299542959283	-0.00549708295882219	-0.000893895836153951	-0.00473473476912264	-0.0146320334061232	-0.00624008123121275	-0.0017468823340265	-0.0064776320164749	-0.00277718114427227	-0.00287308886129037	0.000824449114704658	0.0031380051136052	0.00820754505421369	-0.00276955461300565	-0.00187851944951014	-0.00684725844665156	-0.002955486766897	0.00997820637754043	-0.00577333118173796	-0.00918958329892136	-0.00551662394655266	0.00182443942823975	0.00545303126190983	0.000781594271870317	-0.00350461370776281	0.00413287214526808	0.00259352555819647	-0.00213692498445565	-0.00698977908020813	-0.0129635707408314	-0.00715794743826318	0.00660801217762643	-0.00195911715912754	0.00058633424421656	0.00403112911199348	0.00302614617771241	-0.000866670852803282	-0.000956175966042614	0.00239576755394081	0.00390972346992272	-0.00421926628275324	-0.0070802279636321	-0.00396975508010033	-0.0109920239060178	0.00949893339028504	-0.00213533103083598	-0.00248283508296305	-0.000629110929318282	0.000298502862622488	-0.000242028760562203	0.00431749210012777	0.00361908927648268	-0.00142158820407779	0.000610038373345684	0.00239170712332642	0.00404927690265742	-0.00369340747273068	0.000209376505041488	-0.00128758919628884	-0.000671495588439375	-0.006557453027567
"M15"	-0.0398462078913398	-0.00493637146876773	-0.0512752212347977	-0.0124701239407076	-0.000723876793395485	-0.00886887642298436	0.00208172548989697	0.0131571936275438	-0.0167896692976711	-0.00262150869321258	0.0762024378082331	0.00836877529116701	0.0259787038900206	0.00195999923263102	0.00668023880120915	-0.006241122557582	0.00178176941067697	-0.00312641328314128	-0.000841753892335076	0.00303516400543487	0.00878895240082826	-0.00654082590634977	-0.000866371523976102	-0.00333131572810984	-0.00212640787577113	0.00186747190791125	-0.00492947797568675	0.00328522711588829	0.00954011303936652	-0.00725314358177135	0.0227860002140931	-0.00271313270827532	0.00629872970886577	0.0033489638229258	0.00566187268901598	0.00459334945604242	0.00873237705671114	0.00104780176529085	0.00537081390473221	-0.0108375173205325	0.00716488105414742	-0.0038019325727293	-0.00696781950229264	0.00203344831764836	0.0025998946099717	-0.0070493653950218	-0.000857639265746722	-0.012805612349554	0.00276950490988189	-0.000964282642830147	-0.000763290656590073	-0.00508168257043947	-0.0042345180685576	-0.00721768408828121	0.000784443388147815	0.00250986508044663	0.0129622904896094	0.000605920140510221	0.00165500150851647	0.0012571814682009	-0.000811483038217085	-0.000363283755454742	0.00136840676133435	0.000488267008453036	0.0050134534932568	-0.000409374749380535	0.00091206844336879	-0.00127881344461745	0.000130852303733204	-0.00657002973700023	0.000729908108267465	0.00359717640961686	0.00247732110883741	0.00094151264843685
"M18"	-0.0183998195221107	0.0161466878697092	0.0239800301574176	-0.00332972250424768	0.00637142788046367	0.00134618855145651	0.00458207097154313	-0.0171092574083359	0.0186491554851875	-0.013572702403162	0.0269109232191017	0.00649849366116068	-0.0172409916613575	0.0148898241311099	-0.00656177531290945	0.012579473439594	-0.00138537996162537	0.00388814165586872	-0.00327890628340977	0.00108462004541944	0.00518785239037173	0.00968091252098755	0.00292309681354724	-0.00329724197529248	0.00617064422311075	0.00425213909051874	0.00445236269796038	0.00987657476967317	-0.00470347754202949	0.00402462416527844	-0.00241525972205843	0.00264816996743302	0.00897785354587149	0.000214014002352068	-0.00188112230000068	0.00363631594171166	-0.003332207994829	0.00621785784216531	-0.00204948350719647	-9.29361111292017e-05	0.00338811056700163	-0.00225949739284937	0.00516908764301942	-0.00112127247256136	-0.000323925424638711	0.00556982081669462	0.00469654395703728	0.00175953684557085	0.0085533748735073	-0.00393378767871837	0.000104079297385385	0.00143418423667443	0.00482228428402057	0.00295740385308015	0.00313074224319152	-0.000214403795828042	-0.00174081288142788	0.00867208247434409	-0.00509472498982589	-0.00153264382034695	-0.00269604074148278	-0.00212880855573358	-0.003983330450506	0.00199548148851661	0.00641561226090394	0.000368030941553206	0.000691201695770786	-0.0028285095108915	-0.00224868148215487	-0.00172043845967109	0.0039508635529038	0.000836969622531183	-0.000607434818683119	0.00239941413259984
"M19"	0.0903686602492931	-0.008710545960034	-0.0149387926924649	0.00375052509970715	-0.00298909997601687	-0.0142860425428894	0.00732774515238647	0.00927675724859719	-0.00271344990780226	-0.0129806680473582	-0.00272683132552592	-0.0029570254109013	0.0173874120069344	0.0234911608185698	0.0394300872221606	-0.0031944449584017	0.0249387926212675	-0.00912186333695693	0.00506248908406135	-0.00225018728868154	0.000998296275234748	0.034995817522032	-0.0147984403262417	-0.00126491974084045	-0.00399811101817267	1.0379486749761e-05	-0.00820502875729952	-0.00258101810623599	-0.00154353503368247	-0.00149827122113694	-0.0156227851272419	0.00150468595002981	-0.00645406006590359	0.00809920896326155	-0.00222764070900177	-0.00346255331212483	0.00723533550909563	0.00724948633505578	-0.00113742502934784	0.00685668636347505	0.00318138428381392	0.000336398706224855	0.0082833545103077	0.000273226075509427	-0.00418044277865191	0.00526215893875042	0.00859851020118975	-0.00192913987033435	0.000521589358957739	-0.00115526695311822	0.00190733574008889	-0.00205157304530301	-0.0056016741590564	-0.00876881893499005	0.00619815504320293	0.00242170126865497	-0.00976562893621256	-0.0014259500998376	-0.00516313634242574	-0.00476143458108638	-1.48839500943284e-05	0.000645044670559774	-0.00163369393760175	0.000160442742023099	0.00298137438472928	-0.00160291432951706	0.00180999736318435	-0.00203197104481291	-0.000628584847837561	-0.00283765695877399	0.00259751766938548	0.00327993210645294	-0.000846148125433115	0.00205804645026879
"M20"	-0.0639566036656159	0.0308842628868831	-0.00722268503965546	-0.00143348754130896	-0.0104004950674892	-0.011036455963094	0.00617119473801216	-6.2664234155069e-05	-0.0101469319777612	-0.0254059210955872	0.0172680498456802	0.00954468485925931	0.00338828899192395	-0.004233675685425	-0.0109504621367761	-0.00931795617108171	-0.00356464305051206	-0.00314628018310476	-0.0108252434996166	-0.00771455654327306	0.00430975417132648	0.00391659423692351	0.00281304221627641	-0.0032667629032566	0.00749128584936712	0.00410930970413679	-0.0130828524773951	-0.0006875740021726	0.0113578369227126	0.00562556323159413	-6.84796092896909e-05	-0.00192376771618444	-0.00769065061718387	0.00812444035127755	-0.00253274245069764	0.00475311814911676	-0.00259218992859122	0.00344400531812425	-0.0028651170889283	0.00821654283567736	-0.00324187591538131	0.00577401631796413	-0.0232926519244308	-0.00745845915770269	0.00396158684418438	-0.00384482241913132	-0.00567664203905476	-0.00246686533248666	0.00501789698336784	-0.00112917216552652	-0.00506809666917256	0.00894091139270254	-0.00101414080542665	-0.000372761317483445	-0.00236426894833442	-0.00215281236281326	0.00106538022520784	-0.0038777043624622	-0.00688009066155062	0.00348181216135194	-0.00226662094977288	-0.00300685804054205	-0.00413854597153488	0.00357351534658704	0.00434314624359875	-0.00450569586282884	-0.000713288677043484	-0.00478022123340931	9.79299377374547e-05	0.00332241250570831	0.000961144698519244	-0.00383788523045331	-0.00425801262281471	0.00128041213521521
"M21"	-0.0686380741938678	-0.0303483332856396	-0.0228618305697869	-0.00657966020510727	-0.00195901707064795	-0.00522342750397909	-0.0102894880948187	0.0404909264866852	0.0210992820359293	0.0126574455805631	-0.0703876253140625	0.00315449089839104	-0.0187142246531993	-0.00596092618485162	0.00920488193209419	-0.00135091751107507	0.00912021894827119	0.0168157963321143	-0.0208660286673025	0.0100285944004449	0.0046854970952178	0.00127823494163988	-0.00168132208332193	-0.00302664573255896	-0.00469302196521539	0.00851274404393535	-0.0288537371017962	-0.00574445947707429	0.0119267231899684	0.00173708401935604	0.00303219947365067	-0.00313381852075068	-0.0014212883009139	0.0088312074900023	-0.00207622727904483	0.00156063059176533	-0.00028124389651127	-0.0117205391740576	0.00254635576673626	0.00293891809689318	0.00271249426370332	-0.0012205637083218	0.000300161702555599	-0.00599263053853638	0.00210596966478317	0.00454502672657747	-0.00805831707909379	-0.0120878112725023	-0.000912249902033993	0.00105980668686412	-0.00143595762772787	0.007361469481799	-0.00347058941213574	-0.00937313771435196	-0.00136764424742623	-0.00481668288918975	0.00193654273059349	0.00597276222034885	-0.00721743608126231	-0.00332190490552024	-0.0024436931084961	0.0035476105063245	0.00101650247315171	-0.00370622915322905	0.00196474687654486	-0.00380416169507533	-0.00294684036750958	-0.00476263784913736	0.00139021694624447	-0.00252856235332544	0.00329905491580821	-0.00627910422738793	0.00430594718856335	0.00133870804264625
"M22"	-0.0241974298764597	0.0180080824201222	0.0154960807079118	-0.0104372153454113	0.01026320640977	0.0073598018516215	0.0113782758457551	-0.0143907568918613	0.0110755446189008	0.00353023450023805	0.0361579489766125	0.0030883038715891	-0.00958512145258239	0.0199888230453389	-0.00438014511522851	0.0119798865588774	0.000213424739843978	0.00559395973195403	0.00689924081887892	0.00349940401242384	0.000636250211814421	-0.00180556387579279	-0.0030511424460834	-0.00374622225904092	0.00107398580641262	0.00745449509681361	-0.00159539887509582	0.00313190209470803	-0.0115845535937749	-0.00193558839910551	-0.00119254422509696	-0.00048627911910871	0.0156754966195213	-0.00310016572508489	-0.00246594305160595	-0.00404244704160627	-0.000741988665936132	0.00516413255035181	0.0034310926630655	0.00229819224719477	-0.00687767636890402	-0.00435222461245895	-0.000518467275735102	0.00171569698661156	0.00474223441466999	0.00181843968442082	-0.00562772591440987	0.00145768330746388	-0.00234534541295512	0.0013425628018078	0.00379705936113931	0.00736230667192516	-0.00169917577218847	-0.00144727543455703	-0.000596017128549098	-0.00306476204822578	0.00345868357855644	-0.000315740922303883	0.00882925823372686	-0.003938478525573	-0.000975104086489533	0.00142500290798586	0.00235366483773257	0.000141313771840956	0.00729261201708488	0.00295537698673294	0.00646127866675847	-0.000196879425029439	-0.00276626094123104	-3.54696759386375e-05	-0.00276754110324675	-0.00803478109866932	-0.000227797245320573	0.000942402177507718
"M23"	0.02219717323164	-0.0218844800287932	0.0233413913266544	0.0203671368716677	0.00366598141450978	-0.0152975017070115	-0.000239130470355085	-0.00862072621513424	0.00278219892423215	0.0244191792637017	0.0262205481517777	0.0126366233352823	-0.0025844971579849	0.00437706694557774	-0.0138616402513247	-0.00556407205219863	-0.0151594125030166	0.00189860797259465	0.0138048802068622	0.00272598596788647	-0.00599634700852354	0.0101245424843107	0.00707715523669873	-0.00894647064697224	-0.00347671186268267	-0.00750354093991911	-0.00554081261942415	0.005417180064399	-0.00719616014282109	-0.00232006915811875	0.0093605838334216	-0.0115568620788405	-0.00161568421740911	0.0102281431651167	1.56010084640317e-05	-0.00116702670653557	0.00550180486289407	0.00618057581422896	-0.00170841780098323	0.00637335787377443	-0.000682598076700042	0.00655370030015889	0.00442048690247743	0.00792155001532243	-0.00360060186117411	-0.00446483130593314	0.00244019788447419	0.00309126691966977	0.00275955576694369	0.00341463688227554	-0.00481536986385332	0.00310055203737822	-0.00762927669599663	-0.00653718084182052	0.00788918826719094	0.00400397154806446	0.00745122863584844	0.00727509950778929	0.00173863481056163	0.00267532190834649	0.00062432472000335	0.00132917165573735	-0.0011805769238845	0.000384094854338922	0.00181843841782891	-0.00265164890692763	0.00125149649342992	-0.00195493075964936	-0.000900822597805123	-0.00819482131831782	0.00215878172978294	-0.00143534310392307	-0.000684800399464704	-0.00576331476729878
"SD1"	0.0152901720620909	-0.0377964911344367	0.0120810031442795	0.0148639285473966	0.00056757163505644	0.0120795224170927	-0.0064069919823644	-0.00760291860640683	-0.0189053292164413	0.00283715336269757	0.0445241638192579	0.00345609886044901	-0.021269225203912	-0.00236603163913235	0.00805927518415899	0.00967301138256146	-0.0113995221032829	-0.0114502980949117	0.0117072190276635	0.00612557023476394	-0.00316951710495956	0.00394361401332966	-0.00404165241120673	-0.00544704129618637	0.000139664122936001	0.00541575912828869	-0.00414068869734974	-0.00260053612678967	0.0107538080292092	0.00693247781693821	-5.8921538556759e-05	0.00807168196811814	0.0111523961127868	0.0133222260811989	-0.0023594433063761	0.00205250364581897	0.00212053779060681	-0.00421237991477975	-0.00168504078154457	0.0124455941569288	-0.00248956112989123	0.0111014166495661	0.0125108335564095	-0.00152876056281421	-0.00411529392306133	-0.00794500494284605	-0.0077546458580398	5.32950049516587e-05	0.00158603596980837	-0.00532933224840788	0.000900716815522449	-9.99730017965754e-05	-0.0020480578404942	0.0120830642855842	0.00704338975571214	0.00354473680660174	0.00330130885612756	0.00255626795035486	0.00128202250453358	-0.00641315985370745	-0.00133101643107918	0.00641672099023199	-0.00411330338019142	0.000159544850562311	0.00590193480323819	0.00566485018281254	0.000283267937838496	0.00520332722015711	-0.000132888116960697	0.0029561049617772	-0.00295057278930506	0.00487798907947324	0.00475018571762189	-0.00419060334469586
"SD2"	-0.0386254626580267	-0.0351515875478939	-0.0137506712040174	0.00220491042252815	0.00526973771618389	-0.00943515890665023	-0.0100738696024436	0.0326022399617147	-0.0155050617280894	-0.000419070325971713	-0.0764986921263336	0.0231789074277376	-0.0016047214452411	0.0128880882025889	0.0134716423142078	-0.0103002172330995	-0.00802476609233195	0.00228156226587849	-0.0259604237634784	-0.00223841116338811	0.0108915900133442	-0.00755125736639731	0.00845015365142869	0.00107171341803818	0.00448670415123283	0.00345872139992245	-0.0145083698600503	0.00153182416857881	0.00870764423492519	0.000402607039138205	0.00497774073214148	0.00401054683397343	0.0271223315979734	-0.0013988221691456	-0.00395527201501188	-0.00393143297121604	-0.00416323702687364	0.0128062190028216	-0.00621617533584178	0.00785005013085172	-0.00163376901258304	0.0050027442543884	-0.0179171352014209	0.000142905815274173	0.00467202518047145	-0.00440379296036634	0.010991517469046	-0.00113846245229367	-0.00289696055565341	-0.0032121433553103	-0.0013769909093278	-0.00537355216462701	-0.00187415693785539	0.00480274809656627	-0.0137950808484421	0.003090531757709	-0.00393444523623739	0.0039629465781256	-0.00677809198405135	0.0096568093108152	0.000115151870713749	0.000572873083959668	-0.00235391499051213	-0.00254055009150674	0.00298351053038415	0.00291255159822278	-0.00173945528230635	-0.00295770116589013	0.00218174932372778	-0.000663262583139151	-0.00960912828632786	-0.00146128596201461	0.000259535265074487	-0.00147676672308333
"SD3"	-0.0582442912264623	-0.00671709586317294	-0.0872717442711575	0.00700181618886175	-0.00588181474912622	0.0231765529946162	-0.013634020642447	0.018082816872326	0.0212785735172967	-0.00257189678555976	0.0721772768711729	-0.000522595284927724	0.0413483084402769	0.00331262286928789	0.0299750935673818	0.0117404713862157	-0.0185806112023525	0.00662065939160919	0.0221526112524218	-0.00222597741782105	0.00438074362789655	-0.00502318841092955	-0.000609657274841744	0.00316943698561312	0.000723599112925953	0.00540366318684951	-0.00723612019983966	0.000442815687424816	0.00534518518656293	0.00154321550609262	0.00548239921623832	0.00323018721067374	-0.044201697687248	-0.0197406452854322	-0.000922968709308627	0.0155132080414927	0.00210448716436366	0.0165157202944851	-0.00734296903408161	0.00127801650815013	-0.00119840288908633	-0.000336911990546076	0.0173639984655685	-0.00676347746480572	0.00740295395804926	-0.00565840528421551	0.00238930551118009	0.00264169785817917	0.000187752043501608	0.013088936026592	-0.00137324191561521	0.00555921931838709	-0.006253763224878	0.00085953334446043	-0.00481609296485522	-0.0084762874971454	0.0110642041216858	0.00895642378650882	-0.00133579992038095	0.0024599462827388	0.000651039511533339	-0.00485646065123136	-0.00285040283770703	0.00055132922953033	0.0106431337661624	0.00188458431354389	0.000221960095304509	0.00128675145317846	0.000386061276858745	-0.000443117934290344	-0.00264333339956223	-0.00487134921703317	0.00425909762192356	-0.00269376333573915
"SD4"	-0.030641102690987	-0.00812478049114001	-0.0365811900287832	-0.00111324479334636	-0.00264320236135138	-0.00390989889881519	0.00306836118547624	0.00808881562409727	-0.017107270109813	-0.0108363185613016	0.0750892910947774	0.00945476024915847	0.0187871494724184	-0.000175262552874333	0.00592862258391897	-0.0081126134997983	-0.00644147631462194	-0.0081973984708718	-0.00227358027001213	-0.00101950469627708	0.00643774590179274	-0.00117616045597807	0.0099900138970582	0.00421682834946892	0.00201008082387108	5.51677349321188e-05	-0.00420765580671048	-0.00250911784230586	0.0021806326326206	-0.00375855245838308	0.0118547928187183	-0.00219865218292235	0.0181955480364904	-0.00122614606972125	0.00132660734391538	0.000688382041126421	0.00550069403847398	-0.00295413113405801	-0.00105740988562389	-0.00358374160686253	-0.00130917290997539	-0.00259109733621913	-0.0141154279916713	-0.0104545632751438	-0.00817346313542136	0.0166885137973179	-0.00419750095499799	0.00395931757602118	-0.00458336199323072	-0.00131648498228469	-0.00181651802757411	0.000541586875864506	0.00415012747066651	0.000176810207631746	0.0127422772751728	-0.00187542910397662	-0.00244291673614014	0.00225012555528481	0.00285851335981263	0.00303486245524301	-0.00167846543349868	0.00598688042614417	-0.00228314502769408	-0.000866316017853983	-0.003196989465516	0.00269546692647342	0.00245201542452714	-0.0009435323436406	0.000388695401270306	0.0112256283053989	0.00711350111863501	-0.00378282610996106	-0.00820560826815954	-0.00453347171311658
"SD6"	0.0219928769467034	-0.0281007500486473	0.00636785445978264	0.00657392164887026	0.00766535177068473	0.00155108801813509	-0.0165359282895686	-0.00269652241568594	-0.00427372277188686	-0.024828353771733	0.052627402483821	-0.0101022936870162	-0.0220229603735629	0.00204764171691867	0.0150006426158137	0.000526365428327565	0.0107972999001688	-0.00446293211018718	0.00400358207371393	-0.00229940404249079	-0.00614072502287959	0.00114142220171234	-0.00137741908518344	-0.00365176371255204	0.000165705325716335	0.00648225534974746	0.00708266076025447	0.00103965193568248	0.000926816973232158	0.000319706991124007	0.00777945809483928	-0.000807423880184786	0.0028725526040019	-0.00656250943428886	-1.57872975505028e-05	0.00127215931143098	0.00450775959109181	-0.00417042500906098	-0.00197188534545788	0.00380695680362948	-0.00490190776613967	-0.00395074264177389	-0.00695254739814061	0.00687210404871556	-0.00169112389454404	0.00795600757415264	-0.00574196198196468	0.00123401414406265	-0.00549725734986282	0.00168970791139188	-0.00128873031414274	0.00481787496455578	0.000385345683228474	0.00281866970267982	0.00146728818132288	0.00124088619413273	0.00630281369196406	0.00215206222120214	0.00266297437542509	-0.00153809703213937	1.99985340120066e-05	-0.00331728986072531	0.00209684439167993	0.00534948485168102	-0.000115000593938155	0.00831542589430379	-0.00119885082502317	-0.00627849341289823	-0.000532551171863062	-0.00729000504379264	0.000678826653215118	0.00368516275983125	0.00166929834747647	0.00115816217850921
"SD7"	0.0330647802405072	-0.0391585439501033	0.0100998394985929	-0.00110654776581816	-0.00378374823973581	0.0112939113786497	-0.0048918647547134	-0.00478501477277024	-0.0141856551081719	-0.0216588547024679	0.0411921337411135	-0.00248502387887738	-0.0286722298903204	-0.00320800290382689	0.0183130954150039	-0.0038250850332348	0.00445450128676679	-0.00359158486484056	-0.00587932023049325	0.00110600840168358	0.00100060317486947	-0.00993408965282651	0.00212988833279454	0.00144433972457421	0.00197075759521116	0.00901690819245111	0.0125007147778492	-0.00382628719180027	0.00611991215297414	0.00221763850343725	-0.00844168357479278	-0.00833922241953031	-0.000957147057485403	-0.00478491632693645	-0.0026312242984673	-0.000507804489374471	-0.00218937757447811	-0.00149021572623419	0.00359950557578233	-0.00874655719601383	-0.00159798552772497	0.00114450131999069	0.00875306824400643	-0.00272649305140655	-0.00762342852528788	0.00166768678551295	-0.000664933205599503	0.000550217540072521	0.00620484745903063	-0.00215944736706879	0.00328500911325739	0.00513356947135786	-0.00458810759150233	-0.00178514466098135	-0.00329697446270867	0.000332798938307533	0.000164085813832569	-0.0182365968771206	0.00757281164203377	0.000784276598691839	-0.00513535585664567	-0.000536364297728432	-0.00508291280851548	0.0016823537839122	0.00491183526412675	-0.00336907496225604	-0.000176780151714868	-0.000637219256556877	0.00462604422571462	-0.00347626999322356	-0.00174650397907481	-0.00147347524357711	-0.00481765738496894	-0.00227958607652061
"SD9"	-0.0176331901898798	-0.0161272944334823	-0.021562247539977	0.00201661510363467	-0.0054795698050992	0.00196576736584223	-0.00173425724093766	0.0021372905778791	-0.014514004197327	-0.0245598720960038	0.0690971288391238	0.008101544825729	0.00485474043548837	-0.00770163753359366	0.00640429885951922	0.00187596469882113	-0.0116706926983741	-0.00705260180625243	-0.00850568641663782	0.00194381135374332	-0.0104633239939383	0.00890533329710669	0.00548238601279458	0.00495629675229843	-0.0039462420462365	0.00329426088072543	0.00117484432800646	-0.00664733634477844	0.00415230966991959	0.0028824076515162	-0.000866759079341274	0.0101998848793279	0.0237496456301977	0.00570441403499812	0.00243106778705892	-0.000705983427712666	-0.00161078513600243	-0.00770340114975791	0.000175016643593052	0.00472354897594691	0.00258370959682555	-0.00195030508620889	-0.00848182050334967	0.00131397879966135	-9.58345999445463e-05	-0.00937526399066014	0.00132623448094917	0.00372652296354393	0.00122474278935268	-0.000829237242545972	0.00063514498392724	-4.87298147378514e-06	0.00270305818483944	0.0144475158082034	0.016533978781259	-0.00237116022049194	0.00971112345612274	0.00672257944570875	-0.00132390208340498	0.000262944867332011	-0.00164151099975308	-0.00296224297852185	0.000265580804665549	-0.000434122147182655	-0.00721425137143101	-0.00438798090401395	-0.000538817139551757	-0.00255803955002525	-0.00594150298309365	-0.00366525608998605	-0.00762308510572172	-0.00175819349616467	0.00317638608409238	0.00385934386584786
"SD10"	-0.00241488971286102	-0.0259277636330893	-0.00315837331989029	-0.00549557113701638	-0.00461884751145401	0.0167621001538495	-0.00408664601762919	-0.00477663025855705	-0.0181734114512787	-0.0238130092947227	0.0572307738139247	0.00741929201586305	-0.0185222711825166	-0.00655765359348625	0.00280996465254593	0.00915238385243409	-0.0119283761033651	-0.000232468261805638	-0.0138075973920915	0.000855292710873338	-0.00582741135201795	0.00967054718600345	-0.0025367674436348	-0.00850290076385284	0.00772058499356053	0.00563089487181047	0.0158687532491576	-0.00586384182242885	0.00580660433821873	-0.000887259069325203	-0.0152502377506195	-0.00391252542393974	0.0248170869536873	-0.00264357447926952	0.00224751219721569	-0.00310776718204089	-0.00221411199844944	-0.00155715490624258	-0.00266871277531322	-0.000516754862638394	0.00116655407622148	0.00849413896143167	0.0108334686209987	0.00161793629438899	0.00742808567192748	-0.00184087303705678	0.00099489320220222	-0.00308263460780113	-0.00438706761513861	-0.000549292071768879	0.00677851006416903	0.000784098128127373	0.00327623471328277	-0.00360619956910295	-0.00790596742298067	-0.000873665532580611	0.00549751877550695	-0.00416071512585651	0.00475043048958207	-0.0027736994117309	0.00255573622212852	-0.00412954114077574	0.00169193631745899	0.0023764109248675	-0.00270718683927121	-0.00584634731217126	0.00119665935992958	-0.00345808569385812	0.000900106068353214	0.00183452867355081	0.00875275268723318	-0.000469300158484765	-0.000393412384208654	0.00212720458951244
"SD11"	0.0342576336914454	-0.0316108199463056	0.00468339572375075	0.00125928493596951	-0.000631538376010841	0.00478610085362207	-0.00817106259286549	-0.00125722344603313	-0.00690020784611106	-0.0327964628250075	0.0450085515445982	-0.0089801620873562	-0.0229900722624086	0.00184456084249134	0.0256421072324318	-0.0048577317648836	0.0138344096011187	-0.00257731926317348	-0.00673464723643115	-0.000522974569011531	-0.0016374269383553	-0.00789392779707096	0.00707465087671116	-0.00601021085504866	-0.000423214879874825	0.00975395228419859	0.0118883337670287	-0.000640183747707433	-0.00394896453121809	0.000347490833704983	-0.00189421905403407	-0.00601817088660314	-0.00178787546547005	-0.00608904659168273	-0.00245303793577195	-0.00319182071415177	-0.00346133897219263	-0.00410587556122532	-0.00280430631403154	-0.00813832696823873	0.00143958295319672	0.00538745937246725	-0.00383857302673302	-0.00176732887505989	-0.00536235568907014	0.00585017601425073	-0.00152314549027802	0.00281223923453898	0.00308023781812755	-0.000633698908805015	-0.00557167394971549	0.00124603475230552	-0.00675757033155074	-0.00351610486374408	-0.0015182895235522	-0.000946196605011309	0.00701782600483544	-0.0099630217971901	0.00445742482390571	-0.00170057968270479	0.00338018224917768	0.00253455361488477	-0.00102257469590668	-0.00201295100360304	0.00433949950638345	-0.00186799911347677	-0.00195939082322452	0.00668447583146742	-0.00273678639910671	0.00145039346400376	-0.00024456672527257	-0.00283268227640865	-0.000823572232985504	-0.00217459867060332
"SD12"	0.0105885434790572	-0.0260692223321701	0.000624755511448283	0.00139404867135642	0.00611771077616177	0.00128644905758449	-0.012521025062069	-0.00222164374808457	-0.00441682225307272	-0.0278729926454563	0.0608132479578885	-0.00961734726568466	-0.0183289928668959	0.000860421115960395	0.00341369385018494	-0.00142669414401588	0.00361562892132838	-0.00873740294125562	0.00677434211665132	-0.000203355292666045	-0.00256326841259375	0.00441671361660056	0.00379356929481608	-0.00650653753920629	-0.00286836009625095	0.00343554561228942	0.00379292556883683	-0.00332142444735159	-0.00529873625940845	-0.0084287385798538	0.00400657035300634	-0.00178144913802199	0.0105049971513912	-0.00702193168395875	0.00353799353986506	-0.00042029158126829	0.000388860657420617	-0.00349387995124761	-0.00515365047233796	0.00558119502279581	1.0201289670989e-05	0.00301558195551346	-0.0115974080719392	0.00279322442867321	0.00974969746540927	0.00293365009392579	-0.00125842194214114	0.00064120724738553	-0.00369422393196231	0.00311880259523587	-0.00150527861037393	9.71147252532572e-05	-0.00403738592346723	0.00506165877665677	-0.00271844280316271	-0.00235234395192004	0.00777636939722751	0.00100441809039136	0.00463111723794865	0.00381987155241207	-0.00253678524524009	0.00838963028702848	0.000923923199986546	-0.00198767032119017	-0.00287160803936855	-0.0052644350617458	-0.00172595231275897	-0.00243258339072082	-0.000721132673167997	0.0112270987758363	0.00485493234246962	-0.00243569793533765	-0.00196950690409641	0.000136003062209775
"SD13"	-0.0332657872531586	-0.0148035278727121	-0.0399572167122381	-0.0163338349732516	0.00292767325705117	-0.00582905403792641	0.00864240801798772	0.00715916264641527	-0.0266897614781442	-0.023191069537016	0.0593990499116227	0.0213760269156247	-0.00611980249662971	-0.0314070105982075	-0.0125878218599127	0.00489604920014291	-0.0100705820825107	0.00529644466768426	-0.0325230185344699	-0.00352791334889223	-0.0117959296398161	-0.00632817729514101	-0.0183544309694274	0.000312330296018917	0.00246058496950492	0.00538781786324691	0.0115331408630298	-0.000267326872364785	0.014997218855854	0.00684717900674557	-0.0281227673377852	-0.000985950279524595	-0.00131280428851973	0.00523902993322185	-0.00633295159520453	-0.00354951457086687	-0.00170956854845865	0.00829631965860909	0.00349687800231902	-0.00566115444376033	-0.000790608899616633	-0.00312832544936948	0.0285980198349615	0.00298234716914037	0.00696658187652667	0.0149262046551295	0.00790226579059286	0.0040135857135544	-0.00402329207426801	0.00526185475646426	-0.00208489572154475	-0.00871352085670937	0.000153306494824026	-0.013809307773452	0.00441467525185568	-0.00445662389097804	0.0019061648777398	-7.8956594379548e-05	-0.00306991730625429	0.00252257991154282	-0.000350058718118261	0.00277906517534928	0.00628294174011236	0.000187273538300967	-0.00647719100337237	-0.000310105327003414	-0.00126568076069856	0.00108809450771526	-0.000988770892636236	-0.00182668575502083	0.00119929901236753	-0.000809831918157403	-0.00227861516277818	0.000257194612355226
"SD14"	-0.0191509703041689	-0.0145797210681265	-0.0207968052449028	-0.00629812120684292	-0.0085793839631271	0.00833058845341448	0.00310685589930801	0.00310252404910085	-0.0200713459956696	-0.00422230097162298	0.070995026697771	0.00403449045513304	0.00207438097448028	0.0100700613892683	0.000640836805818787	-0.00107832428917219	-0.00312464661499401	-0.00161052287800506	0.00540247548317794	-0.00134010238756211	0.00318055726161549	0.00427914051224683	0.0109238839992944	0.012081262469396	0.0016497352367525	-0.0100450552191334	-0.000544658298885877	-0.00764429803264059	-0.00137731106913582	0.00323929843184244	0.0142261040876545	0.00478285440156681	0.0253560822175951	-0.00947171284827737	-0.000946656659302268	-0.000570311028572918	-0.00349559581193227	-0.00273138165942852	0.000590111822658721	-0.00705575925634329	0.00192848187727164	-0.000382844212242422	-0.0127843580346268	0.00491373596171554	-0.0081141643665864	0.00981805312939926	0.00552066749740617	-2.52988757939817e-05	-0.00218801488989969	-8.33513869056464e-05	-5.16188355899612e-06	0.00782861954016708	0.00359429909582765	0.00351959476120811	0.0100212207268123	0.00340634547456293	-0.00457034701407864	0.00447377395150119	-0.00410394687741359	0.00533814683407531	0.00231772038046139	-0.00636822211816794	0.00374213600599202	0.000373440531864534	-0.00705488757350984	-0.00351695961980589	0.000155334369011176	-0.00765411988260647	0.00274792693185497	0.00199395034986481	0.00342380976219485	0.00116754367380918	-0.000714178556770181	-0.00164611198664696
"SD15"	-0.00858886074352569	0.0147220136877292	0.0366153842053896	-0.00717622375840039	0.00637606746233504	0.00436039238536297	0.00307683474600016	-0.0181078914973337	0.0105735320850744	0.00855597150319948	0.00784004496474445	0.00377950285623181	-0.0114615327768014	0.00134928876135103	0.00957392194010387	0.00283297011540795	-0.0126115764793587	-0.00159455749715437	0.00331832081123867	-0.00198035808006671	-0.00297875736236779	0.000116107815989212	0.000885611010192365	0.000835430693591755	-0.00410552180065752	-0.0058101308774949	-0.0048459045413693	0.0128529955635035	0.000682420990489608	0.00400082329617614	-0.00410827148474112	-0.00672702449167439	0.00156380394387704	0.00452800157886829	-0.00135534439239423	0.00238742113610036	0.0104238766844195	-0.00448340816569551	-0.0021957341438629	0.00726159869715814	-0.000478747459340133	0.00719694303776933	0.00274493365080862	-0.00062766647383551	0.00284306451825294	-0.00630491761940546	0.000148922569815838	-0.000225720510777016	-0.00526890014340593	-0.00442296449267414	0.00202359282014015	0.00249962178923086	0.00937329786106515	-0.00847673490863893	0.00318712433706604	0.00117926565362732	-0.00760212777032584	0.000382724501467265	-0.00106256108078876	-0.00446509017993361	0.000206079084616748	-0.00347337346830203	-0.00140475899798056	-0.00441604482350598	-0.00273391994143821	0.00257627412486239	-0.00243795926244259	0.00195759801027139	-0.000375293992120343	0.00284254654741822	0.00133644220519744	-0.00591138754584562	0.00389730572214676	0.00209420741778039
"SD16"	-0.0214400415233249	-0.0156958196925052	0.0202712129502456	-0.00240271102982243	-0.0014430727195396	0.0028973864325494	0.00645462274362443	0.0161177992998836	0.00593242384869534	-0.0040564589471721	-0.0708858988908658	-0.00914788825635079	0.0175745893512235	0.00934961235982608	0.00317647666759041	0.007771631359411	-0.0044142748884295	-0.0110257546298011	-0.0087438977812369	-0.00410769777005043	-0.0056998090306015	-0.00663013890180055	0.00388723703111109	-0.00226083437761939	0.00218112041588814	-0.00775794276011491	0.0012240455124482	0.00481939266743683	-0.00078127053977047	-0.000153550254992242	-0.00164204504058411	-0.00236135099704989	0.0279424513256979	-0.00370952560852358	-0.00180083622427894	-0.00798180082115056	-0.00748429338630866	0.00285556032290365	0.00381695092296585	0.00337885949196567	0.00494134287419362	-0.00629684679456777	0.015998867535014	0.00113485079148848	0.00474555819491673	0.000680473829449305	0.00338956028713188	0.00241076504638324	0.00191823583054487	-0.00671399264341169	-0.000765823456177049	0.000763590188511089	-0.000832894098688004	-0.00129753392873326	-0.00408810140496383	0.00570284447364595	0.000588882469341122	-0.000494097160486175	-0.000556816297227699	-0.00455925781392466	-0.00675849408325787	0.00133134664407691	-0.00216855515327973	0.000736510829032776	0.00506381831068397	0.00434973510528826	-0.00576764328467572	-0.00517549003938097	0.00251624841672494	-0.00183634736009434	0.00252550709805086	-0.00245843661342337	0.000874953973974431	0.00709185772613658
"SD17"	0.0276101277127791	-0.00642949833556693	0.0203906998662728	-0.00354527575805006	0.00244045467841208	0.000813850878588989	0.00920190538939633	0.000988736765015353	-0.0289793321725934	-0.0377062536096758	-0.0564269370873753	0.0022368607800186	0.00831169489522842	0.00802936215176899	0.00818858873880633	0.00856662304366683	0.0117496597495518	0.00411624657637953	0.0139299037025381	-0.00665542789650018	0.0031454672814749	-0.0214335371479209	0.00362184657301783	-0.00377735530138725	-4.94904874507635e-05	0.00844613211847924	-0.00804389122843112	-0.00228659690500318	-0.0129293808303717	-0.0109444444966997	0.00447501108452374	0.00152730628560445	-0.0150598693152024	-0.000724102039921811	-0.00141250984764958	-0.00704305564136237	-0.00439158924127282	0.00157442590579923	0.00219446891237707	0.00647380501864483	-0.000595306482658962	0.00166843242416138	-0.0066895189318276	-0.00216932082389973	0.00422127090841406	-0.00589009847824342	-0.0030337076277702	-0.00195522456424418	-0.00245950106167375	-0.000564845608116956	0.00379282644774644	-0.00442489497968043	9.319556992312e-05	0.00218765389940594	-0.0053381859186353	0.00308180551194371	-0.00488338496432451	0.00743248706006606	0.00104695789636886	-0.0053269117953575	-0.00428188026275537	-0.000528230088717695	-0.00316436445483998	-0.00158524503726656	-0.0104760539166493	-0.00114593263676967	-0.000464188455894045	0.00294662683917138	-0.00120568180781828	-0.00772594829931446	0.00924291024746565	-0.000481515495404944	-0.00782250179945402	0.00203516234922176
"SD18"	-0.0480252438185408	-0.0309726889900659	-0.110463378592486	0.00274187237185882	0.00976087570290567	-0.0188133649379735	0.0156123371677097	-0.0644347637992223	0.00638257852636454	0.0112477678560469	-0.120996286547484	-0.045333456009803	-0.0141777544024152	0.00867945077553946	0.0105112078293482	0.0193444473053367	-0.0271912169075853	0.000454372956806434	0.00719208560976932	0.00138002499061916	-0.00879397332803807	-0.00104025881607389	-0.000474145677461098	-0.000188527796840196	-0.00174109627947476	-0.0126437508735215	0.0297225446192806	-0.0149154730777373	0.0165349591111586	0.00356789553172744	-0.00974278746751306	0.00231464474538662	-0.00868538773599858	0.00197215016220888	0.000713634528859835	-0.00165582031573701	0.00871521606463745	0.0238037228738742	-0.00030529493118867	-0.00526635410585939	-0.00205696285740831	0.0044879820034076	-0.025828832374176	-0.000317337051587578	0.000346619991288384	0.0024913513036855	-0.0252370234558297	-0.00125351365137832	-0.00112972156177588	-0.0139209749136097	0.000100883852002612	-0.0116439421872237	-0.0091547779963403	0.00166013061403278	-0.000867822866800097	-0.00159150637197858	-0.00628280044201702	-0.00239289986212475	-0.00945676023456219	-0.000261858683076961	0.000418504736765682	-0.000735158906151457	0.000817741467753101	-0.000240723128432757	-0.00768233457389847	-0.000935709572396957	0.000274172437568735	0.000229116214639577	0.000727384115507927	6.88462983849772e-05	-0.00226316333722231	0.00105037573687806	0.000578415203610233	-0.000232308883790686
"SD19"	-0.0669835273515381	-0.0220210549300831	-0.0152054026092431	-0.00165402799710939	0.00320410963007469	-0.0164833561019432	8.40497657364076e-06	0.0384004037739363	0.00257029750352406	0.0132210400076581	-0.0597120449194501	-0.00343333156567232	-0.0149183593421809	-0.000268458980049743	-0.00243292398401335	0.00122058551662909	0.00230638727862527	0.00479767327686126	-0.0169823266431787	0.00259322482414909	-0.00877367401124205	-0.00324013480430407	-0.0142099472329053	-0.00164922986735107	-0.00761805944240097	0.000311578226935554	-0.0286221663685211	0.0131318246423842	0.00853457151596847	-0.00106880167963224	0.00810199479436748	0.000792915906772268	-0.00194506102360845	0.00510900567789503	-0.00223087356206376	0.00471173910495137	0.00694637746480826	-0.000529853694021373	-0.00723087388474395	-0.00139186356896206	-0.00229409808393706	0.00826468334650434	-0.00102405362756183	0.00118304483831828	0.00148103844560115	0.000708796784573991	0.00498637484878198	-0.00274305485680118	0.0012099774994749	-0.0110208217935795	0.00497539373802832	0.0112844796297118	0.0150005181020984	0.00762134826370622	-0.00377221384163219	-0.0049729981599262	0.00533027315329021	0.00909833614950896	0.000892567120647797	0.00512399822919748	-0.00246696445430958	-0.0101378306634551	-0.00228604246215406	0.0007746350963815	-0.00746691164624108	-0.000729529686422614	0.00136601776275122	0.005798051947352	0.00115118658814103	0.00357042917281047	0.00653931561786476	0.00440060477880856	-0.00544528243028113	-0.000255036365987862
"SD20"	-0.0360718163755166	-0.0197560238975993	0.0127805731253197	8.14111554212717e-05	-0.00072333030695225	0.00121334702294039	0.0133709128066315	0.0183773631672461	-0.000272634983720287	-0.00921696275369982	-0.0639560000290114	-0.00934370699168049	0.00775234646691591	0.00307370771647727	0.00178982253111418	0.0063879429075595	-0.00857043905625772	-0.0104856394057607	-0.0195398994840741	0.00214136429911532	-0.000137390694035503	-0.00340303782657866	-0.00462870736915721	-0.00416496934729662	6.11601526562206e-05	-0.00806258323863886	-0.0206522147241014	0.00508417356381263	-0.000461269984486318	0.00708673657422021	0.0125239870307138	-0.00242462630484583	0.0253359490076577	-0.00391903593663143	0.00360960989059712	-0.00550719603870587	-0.00127909806727612	0.0020505190863388	0.00324756000984974	-0.00315626256033874	-0.000284372514896535	-0.00400184293437299	0.0050459259225796	-0.00180706928226798	0.00517342318584723	0.00121999103901945	0.00110069438740498	0.00620359564990775	-0.00204729570726393	0.00689762175168999	-0.0039300811513755	0.00310741592311982	-0.00571194253034925	0.00565777688302464	-0.00265678119346119	0.0025084055810971	0.00109076450220996	0.001900211134941	0.00043297734541121	-0.0053008007322828	-0.000402863614358479	-0.00319025947465363	0.00459894866118028	-0.00246491182665285	-0.00762346563452384	0.00532393500867992	0.00244897703537735	0.000419766712064773	0.00462118786802408	0.00245989058517072	0.00365939252382751	-0.00274073768309027	0.00103429641622372	-0.00174108776207586
"SD21"	-0.0372992226286059	-0.0102668555296421	-0.11576733786999	0.0109023618142557	0.0150021009140769	-0.0208169086915147	0.0311355160052564	-0.0888853138307411	-0.00981193339015101	0.00634347897777736	-0.116618384605045	-0.0477899234130275	-0.0114137232012601	-0.0119277802426444	0.00765320369431866	0.00988157826536859	-0.0254964886915443	0.0141755953829072	0.0199433798944168	-0.000891778177821069	0.0101565248539157	0.0040157732991895	0.00429090093466116	-0.000871671442202203	0.000344401936831954	0.00600206522094189	0.0448078726414696	-0.00766436553189061	0.0196158916507456	-0.00256319606567804	0.00759887397437444	-0.00240511345392053	-0.00641931310866242	-0.00283130906520113	-0.000996636223415319	-0.00125466883665781	-0.00536324243221947	-0.0248042883629586	-0.000279829247463298	0.00345793632005186	0.00197711525575897	-0.00349466070704743	-0.015916815379018	0.000216870541065784	0.000473394766352729	-0.00220880705390462	0.0224431374469282	0.000881104970017395	0.000860070683196368	0.00985492585659671	-0.000608431139780583	0.00982811541805134	0.00752626028678748	-0.00154808836775957	2.85915685018288e-05	0.00105055703571454	0.00480783909110167	0.000938564357527247	0.00808644968206464	0.00045575762275691	-0.000491948191036505	0.000206923015083751	-0.000847578283990951	2.46038646854687e-05	0.00973057848937612	0.000920954017084721	-0.000137658286971036	-0.000518025897095494	-0.000651657745988708	1.0997742825398e-05	0.00136246151942602	-0.000794353267797465	-6.25747583787621e-05	-6.70946426215029e-05
"SD22"	-0.0365532661771253	-0.0257315538276957	-0.00805387589009112	-0.00490068576367911	0.000872765007547123	-0.0086303866973586	-0.00476411228642858	0.0310538261620243	0.00618348339381585	-0.00244533654440614	-0.0844030247148091	0.0177729434229289	0.00996945728015903	0.00968649954514181	0.00439027190209435	0.0100686280511783	0.00744376595514415	0.00869299809101011	-0.0151281957609957	0.00126308480281778	0.0109593942750619	-0.00727530260140131	-0.0082379498899933	0.0077451067697291	-0.0046090153956837	0.00170232536517187	-0.0220746016928408	-0.00185539573728266	0.00923089312754956	-0.00391760251410139	-0.00546621220758047	-0.0021772142374783	0.0360482609059304	-0.00509426654144936	-0.00163509127842149	-0.000243750250953923	-0.000181584852937501	0.00181109849657604	0.00221448327029712	0.00928800063188478	0.00564317507740843	-0.00168266596778116	-0.0144897501133243	0.00725784880541461	0.00366692853935361	0.00150344658549719	0.00326516774978236	-0.00260582487522511	0.00459698389512182	0.00839618891231469	0.00240378487826673	0.00344342798029041	-0.00111029429007373	0.00740116451233512	0.00371829252536732	-0.00226755062580925	-0.00569029047811225	-0.00407135170090772	-0.00370626939846186	0.00184323219895729	0.0015700920971905	-0.00292994146839588	-0.00261507323859639	0.00169160175045637	-0.000979127407257222	0.00353102310323925	0.00152472527369064	0.00488051223518282	-0.000251976895452946	-0.00233479771329172	0.000139709756926355	0.000266754957022916	-0.00387005119825402	-0.00421676286022773
"SD27"	0.00253357053280242	0.0123934217789359	0.0316696067375567	-0.0129585649353488	0.00710513934421443	0.00509723733244685	0.000533945871270762	-0.019291395875017	0.0256549335137541	-0.00388974667886359	0.0169028608893585	0.00635109189849803	-0.0144614178720213	0.00915125712365649	0.00934722463301276	-3.82309439084667e-05	-0.00488332079026764	0.00610066617564949	-0.0147666816202387	-0.0018902795242329	0.00672286029684833	0.00609442177011633	-0.00145889430149972	-0.000520700760956519	-0.00264566707000038	0.00020675947409582	0.0164271355237664	0.00411363725845193	0.00135273010001813	-0.000889399489920388	0.00427263660427348	-0.00532191066169372	-0.000777539876764695	0.000422442837218828	0.00160382071367057	0.00259558641785037	0.00304219732148679	0.00397702966952217	0.00254593678792385	0.00145854222976426	-0.000402158439488137	0.0113392971700994	0.00690214763172549	-0.00298210450934929	-0.00476035167435761	-0.00037075291422451	0.00330519026180244	-0.00136722937851757	0.00486374513350674	0.00550814165331219	-0.00121334361102901	-0.000810839222278492	-0.00224793947714433	-0.000384844703982197	0.00413519107445943	-0.000378973027437344	0.00146804408813259	-0.00138457278125236	0.00250090431507646	0.00121742936489598	-0.00101465055910803	-0.00150088723109862	-0.000608229388718584	-0.00159353726597206	-0.00942502376974578	0.00284479112925302	-0.000284026132907228	-0.000326201631725758	0.00257528721462722	-0.00334771611176485	-0.00506110303461241	-0.00318044125229474	-0.00210892856307794	0.00182515813037891
"SD23"	0.0233651008537873	-0.00385807510497476	0.0408501613722267	-0.00786256899826332	0.00104212232481584	-0.0103304152955634	0.00130692989850622	-0.0163440674636377	0.0135162872221156	-0.00385016137575452	-0.0158521384489179	0.011370466433801	-0.00335484737104174	-0.00149839049017159	0.00821803188468775	-0.00656894733285191	-0.00324569940418787	0.00198108998972889	6.88611359196114e-05	-0.0016518697612463	-0.00536941110022951	-0.00395065164279594	0.00458746112916369	-0.00200758954710056	0.000433235447427372	-0.00494306232603363	-0.00678059038548564	0.00806340507405199	0.0112155396809481	0.00544667225550635	0.0108565550799397	0.00493631764084403	-0.0244078697082833	-0.0010158746517805	0.00430854625675851	-0.00910602210851225	0.00379409965801393	0.00130405915917173	0.00292792359513839	0.00322913608052923	-0.00491986090032789	-0.00493267084969342	0.00543335763837812	-0.00235476249096701	0.00143457061429034	0.000193151901629751	0.00436865356381119	-0.0066940683180539	-0.00271677978329939	-0.00114119016514656	-0.001058986167714	0.00219072626645872	0.00422008940335148	-0.00331832756732093	0.000106282657829661	-0.00405521544052511	-0.00358431025517757	-0.0101620389963842	0.00347774302011074	0.000986128012082509	-0.00713452639665206	0.00167781002847776	0.00303073978842034	0.00161416910209112	-0.00528943914177617	0.00406520060845776	0.00812474416965843	0.00542850998599167	-0.00429715795252455	0.00165941187178633	-0.00617463919546998	-0.00549628770552693	0.00479154218261543	-0.00433922930809089
"SD25"	-0.0431578452567744	0.0230314485546843	0.00905558486548774	-0.00929869776379347	-0.00734904563215646	0.00755171171856172	0.00395013529976313	-0.00922263263830626	-0.000743405939563802	-0.0403655829077912	0.00867729741296936	0.00920543432237919	0.00246784151653526	-0.00560727260695321	0.00773307223049311	-0.00566746003948176	-0.00987402080621864	0.00210960313688299	-0.0212773957507161	0.00266466990418738	0.00265295687368011	0.00597327694875889	0.00271403796786415	0.00287488829027421	0.000299700282180296	0.000661084736363769	-0.00410224852194483	-0.00490376991040944	0.00801881026775769	-0.000955438633298743	0.00649558417126274	-0.000825119151826357	0.00471385182017342	0.00714518128376459	0.00106414245559003	-0.000980160365454502	-0.00347120724865205	0.000117855968013531	-0.00428415991994645	-0.010106452840431	-0.0064845461073353	0.00571188695187421	-0.0200915382344683	0.0016468288286578	-0.00177993661412596	-0.00288441387807799	-0.0033871211547766	-0.00240851830292067	-0.00323575110993554	0.00655915105565599	0.00918129157050477	0.00526766638926667	-0.00398910279105476	-0.00628290271658353	-0.00835724158357309	0.00144691778395298	-0.00322617541637997	-0.00747075123544381	-0.00554240183395279	-0.0113696381195151	0.00157459087814684	0.00337192924250263	-0.000292771734200559	-0.00120484182318413	0.00157681256192446	0.000130728416209576	0.00562943321371588	0.00166768363695266	-0.00538407733374687	0.00721410612641753	0.00513738785575361	0.003755470436791	0.00359899160004042	0.00233372273422756
"SD26"	0.0404590269017333	-0.0458787430972798	0.0134390113290597	-0.00783450713826381	-0.00310559694055999	-0.00139665900609908	0.0106568940202619	-0.00330296860189991	-0.0208413086973222	0.0023867334531354	0.031218050330306	-0.00419464428073593	-0.0170153383986969	-0.00994012804326816	-0.00873386824509908	-0.000302760048983936	-0.00723874610882082	-0.0030127322090711	0.0182628122290429	-0.00176808582592576	0.00874586442294615	-0.00392850675325815	-0.00305280053281477	0.000374513731846168	-0.00172924275111175	0.0104486652635532	-0.0185889587178237	0.00053748108485006	0.00104226570923827	-0.00812673994957046	-0.0160612461249348	-0.00172450426463571	-0.00530753052461698	-0.00829291523095656	-0.00204771155410988	0.00404165565521435	0.00406398466678198	-0.00443546495613413	0.00230965937137776	-0.00363464435245366	-0.00530584941717097	-0.00521648041959011	0.0131231249034273	-0.0046774190353331	-0.00149137679747684	-0.00539862517321114	-0.00133824024838777	0.00189763754673108	0.00174232355372079	-0.010084406108982	-0.000249320644200127	0.00243051155298875	0.00101485785633548	-0.0015913588496284	-0.00527532077771782	0.0017033079193379	0.00252176147844157	-0.0083519955913541	-0.00564453922448526	0.000738413731540257	0.00186358126445292	0.000171702205881459	0.00269865457079986	-0.00158827240481859	0.00388329823663116	-0.00142378692628072	-0.00267976338955328	0.00389614704191808	-0.00412667541924279	-0.00441314057207299	-0.00391389217487785	-0.00318224069473734	-0.00621559568312182	0.00639149059167895
"SD28"	-0.0225419590257947	-0.0065725018649996	-0.0282737308544531	0.00226053627465769	0.00455796009910467	-0.00636837409388367	0.00258561986489002	0.00474679476996641	-0.000527058350499656	-0.0241653026278842	0.0738863022803739	0.00328672360971003	0.0244969212487152	-0.0102643196682677	0.00570041209921847	-0.00701367365925581	-0.013119683162038	-0.00339269334021396	-0.0015724144256197	0.0030366818594009	0.000837868008718039	-0.00378807147746479	-8.39892217110773e-05	0.00381102431503587	0.00184223559396261	-0.00341187680415317	-0.00654348419247366	-0.000962925239446613	-0.00901116307488458	-0.00778211333741845	6.39835760860559e-05	0.00101693701649718	0.0233364906070434	0.00257365061755208	0.00626384039039082	-0.00330797181519368	0.00367921114462929	-0.0060866300263494	0.000289800726137136	-0.00313948371538587	-0.00646460862621313	-0.00692113688647345	-0.0154796636050471	0.000449141604023368	-0.00254964319324942	0.00198304329980964	0.000923609446589911	-0.000658361582816481	0.00343458948904134	0.00197556086443844	-0.000253081110060492	-0.00721063859390157	0.0021208932410505	0.00182726392855767	0.00749618718894992	-0.00371962349729733	0.00261818084605734	0.000886302694352159	-0.00489673386012999	-0.00824134709484038	-0.00286528810015501	-0.000148584167267748	-0.00754184906210066	0.00275992275640206	-0.0103979027410737	0.00107791265161883	-0.0030265515394415	0.0117147477264436	-0.00679309034613873	0.000190277408642284	0.00318218428199046	0.00322135837035497	0.00583737827874858	0.00160626944647582
"NMA1"	0.0102269149267213	0.00963298231580431	-0.0104650004847486	0.015677985680893	-0.00563248252961994	0.00859437541083884	-0.00784644382184068	0.00918375011020334	0.00304060988802923	0.0615763876668075	0.0488284073438644	-0.0143073238521187	0.0158637254898164	-0.00948817889458659	0.00398852687244967	0.0148721053967773	0.00887639056222142	-0.0134633593104828	-0.00827534439062676	-0.00423104977312168	-0.00387887365020027	-0.00631684898688732	-0.00379109351657329	-0.00528651130235544	0.00235858682052075	0.0115044102261523	0.00134083705136868	0.000588304048628361	0.0103044111591992	-0.00535328048743271	0.0106721909512013	0.00224948434176338	0.012432386200338	0.00128356240622749	-0.00295627225821808	-0.00104692682746174	-0.00269936963466711	0.00386680946554393	0.00361118579465033	0.0161761508272793	0.00480699370567046	0.00686281668698812	-0.0111500623333891	-0.00601679106742475	-0.00252738335379359	0.00140480212781409	-0.000142261351773785	0.00168148705081927	-0.00753055855662293	-0.00029415367001854	0.00623032045787449	0.000789037178198029	0.00456119586955674	-0.00473661169532028	0.00912463390798917	-0.0027122991844832	-0.00550112946913472	-0.00910838702261693	0.00574411395976486	0.000385226287743671	0.000596113627402551	-0.00207904205381751	0.00248967547518989	-0.00392503959073807	0.00453794904691369	-0.00147683223740729	-0.000131746758315221	0.00387351560400344	0.000964721053719017	0.00112092461571092	-0.00106255838615476	0.00184125513879838	-0.00614294049710315	0.00258284657432962
"NMA2"	-0.0131808293616613	0.00366715588540216	0.038724299769751	-0.00715032820409695	-0.00752810438804867	-0.00155231629717471	-0.000535829518817409	0.00023330231072079	-0.00730524833500516	0.00433181557982807	-0.0425134054085444	-0.00828886271408208	0.0167193561791974	-0.0107795444079011	0.00791911478635572	0.00478783850688897	-0.0120924380651347	0.00731584824401353	-0.00534844162613393	-0.00224228175988829	0.000170079690638039	0.00431872736513323	0.00428248851492337	0.00429191955334185	0.00351669109524624	0.00309368457558145	0.00685242072386078	0.00143853063652558	-0.00974805297294546	0.00263267011073388	0.00868968395689862	0.00696792896570622	0.00666606841221507	0.00461160994336824	-0.00364300454278397	-0.00179394168892486	-0.000180036163768961	-0.00149732304539007	-0.00608139946451705	-0.000373032869509893	0.00462987634541655	0.000217165353757662	0.0123680152334502	-0.00127265195484392	-0.00444135448287888	-0.00175981991413404	-0.0019978069740559	-0.00303068729472347	0.000408185467787298	0.00189260677343392	-0.00325550029098288	0.0027215669590299	-0.00218815364205646	-0.00102467196673392	-0.00517515701755028	-0.00259548454578477	0.0028094260897647	0.00411065044029395	0.00421288406717132	-0.0099809825160933	-0.00364919944126704	9.03991549042919e-05	0.00263894802647512	0.00534085669750245	-0.01198617218492	0.00473178226420519	0.000228925855178352	-0.00385118616307237	-0.00436971254929416	-0.00180781967119732	-0.00289738147202736	0.000630166777423776	-0.00219882273419218	-0.00281741774217632
"NMA3"	-0.0405130153749761	0.0242680100126644	0.0293506687669547	0.00317291686024252	-0.0062410956625003	0.0134687254758817	0.00413889116939269	-0.00451246220354474	-0.0099072435217628	0.000892932630659384	-0.0108307543530602	-0.0159980885240251	-0.00125846635348734	-0.00660874643656464	0.00441372669244707	0.00327869478924611	0.00482404091268757	0.00530268014829991	0.0097497423413436	-0.000410301267700918	-0.00111986606758908	-0.00656217718523498	0.000512206764307501	0.00410581972094249	-0.00361376410641312	-0.00113650008773575	-0.00983575320665706	-0.0110446277410376	-0.0044209326636805	-0.00473296406330838	-0.00751789942884212	-0.00993624242815126	0.010225668578871	0.00404618122921736	0.00258834515398444	0.00304944565446402	0.00274317661168816	0.00134159811771052	-0.00377328630443484	-0.00379858659246152	-0.00293667639794591	-0.003548642838855	-0.00167190244353688	0.000734900592001594	-0.0026703491139104	-0.000302812205692457	0.00653620273820362	-0.00448043034641778	-0.00326176240503137	0.00158881892349618	0.0012390261789505	0.001541265962582	-0.0039339748042738	0.00744453291184543	0.011492793675571	-0.0018909410274396	0.000247869475302341	0.00656795120193107	-0.00244083059801241	0.000868330359337031	-0.00440704853743766	0.00387842859167482	0.000309953154370009	-0.00122667486943487	0.00271922071971987	-0.00041868462749193	-0.000924398099496258	0.0034516325723853	0.00180890673674773	-2.06815588107698e-05	-0.00494889665334001	0.00443446372629975	-0.00409491786773156	0.000673352387207497
"NMA4"	-0.0750645549094615	0.0231752183104292	-0.00799461218595057	0.00397187428819709	0.0104303483844	0.00626483555948832	0.000464068214323999	0.0168339876372846	-0.0162677856455803	-0.00185460105300348	-0.00619798760336509	-0.0163095660027127	-0.00487578401801383	0.00207438355794248	-0.0185816286949559	-0.00908613625249324	0.0213852774352897	0.0055124391248071	0.00610954944106395	-0.000500016250026742	-0.000360859769373662	0.00543532073724544	-0.00497530208696165	0.00122062461271988	-0.000108519211612893	0.00379583714595412	0.00601559947003345	-0.00696481320052709	-0.00834278742884215	0.000435465258280963	0.00631967777133571	0.00459279536650195	-0.0122334731361494	-0.00155772739658728	0.00495343468209875	-0.00503882155578224	0.00542512784239344	-0.00621378216415793	-0.00381393205889991	0.00511431865386475	0.00234025885082872	0.00159174531171257	0.00638122934445616	0.00260575069776964	-0.00339194391784929	0.00836978845812524	-0.0036810181830736	0.00105637906594007	0.0013920634740339	-0.00537740585022592	0.00349541801756866	0.00876167195342573	-0.00467913400913271	-0.00161509549764358	-0.00539603483230655	-0.00227807823378852	0.000348873140036194	0.00244871013545515	0.00177310873683577	0.00323496901771008	0.000900189513872904	0.000582623799741491	-0.00767857129276702	-0.00142049730843816	-0.00850691709355735	0.00202543113723315	-0.00595236221290305	-0.00339173543328831	-0.00333229279853551	-0.00192234205800031	-0.0061325250170829	-0.00790429234099764	0.00349295453122398	0.0020364956587316
"NMA5"	-0.0799074045232454	0.0220035210823524	-0.0538625408588266	0.0240715959629154	-0.00378511335600694	0.00947554063240477	-0.000450658899120183	0.00496318698658864	0.0267441450388433	-0.018649887488602	0.0301060930487291	0.0238896310056859	0.0153123931945826	0.00383424885050094	0.00459505797064697	-0.00101719838778034	-0.0287992985904791	0.00309621548891923	0.00991090671961334	0.00185766111381861	-0.00322947481034971	0.00148936685639701	0.012490015368025	0.00788949556480691	0.00587811148204464	-0.00382228032008109	-0.0113464317805954	0.00528016771366786	-0.00183429983783364	0.00258069135529877	-0.0119845344436193	-0.00717003948250669	-0.0611034453415883	-0.0266228362063819	-0.00106764348774323	0.00598738021273832	-0.000701324240291969	0.00056128057929701	-0.00019638624591837	0.00774604383996958	0.000593591587817539	-0.00477727453639437	0.00560655466605532	0.0100478187415543	0.0100038769735754	0.00482819840394665	-1.62811439018088e-05	-0.00546301701256942	-0.00326860212345327	-0.0169913259272564	0.00143708693404876	-0.0062026500532413	0.00156608893589623	-0.000912498482364215	0.00375654400428994	0.00390788782925881	0.0072337563274834	-0.00457652048115291	0.000812028448434656	-0.00446214082772179	-0.000171973271765495	0.000669255257475046	-0.000383153581204689	-0.000790135038169225	-0.00150525493633787	-0.00152596720872573	-0.000396882285552051	5.12036598699554e-05	4.11440391560004e-05	-0.00314111831691092	-0.00372284205799035	0.00294123558914841	-0.00829432390442388	0.0009663904159742
"NMA6"	0.0309983749010026	-0.00249824859679176	0.0335668360289426	0.0013488461711912	-0.00744926197907928	-0.0150967708085911	-0.00297550503906992	-0.00798043002274823	-0.00950628123274464	-0.0208639214495976	-0.043310887673983	0.0194854895948942	0.0118317453377399	0.00705601545530769	0.00132416459907655	0.0091628823808007	0.0122517375558777	-0.00103885410957321	0.0164404992516399	-0.000418772399178543	-0.00324861374095042	-0.00342487961171406	-0.00363274731742033	-0.00216432437055171	0.00624673891165234	-0.00933504554332442	0.00211972294479655	0.0085063939683356	0.00381698330840768	0.00245385202637857	-0.0052863503739707	0.00549977375224663	-0.0269108025341273	-0.00159636900313679	0.00133835166150751	0.010390370788256	-0.00214183381677136	-0.00600217794941496	-0.00325835398390113	-0.00906073905666235	0.00325441341048341	0.00192991194917946	-0.0109555999111629	-0.00138622567001793	-0.00317975435759958	-0.00300760840132999	0.00070761657133688	0.00347808466126692	0.00196664025560312	0.000282559199865251	0.000914457959907638	0.00121152875006646	0.0023486230940328	-0.00589930687989807	0.00366235653234502	-0.00752594368666968	0.00342678991621402	-0.0145085741208219	-0.00138699713352498	-0.00437283547799936	-0.000261224815490951	0.00446385390792445	0.00873909316416728	-0.00172581105812717	0.00147402130145842	0.00229462559483534	-0.00590498302528481	0.00476608351547587	0.0046432498844689	-0.00569989982738762	-0.00233187206018285	-0.0053621534618514	0.000454178420759919	0.00374014970436347
"NMA7"	-0.0172999327560998	0.0227630764726825	0.0191569389268599	0.00323202097707808	-0.00212058261397716	0.00402121330881383	0.0130362250557037	-0.0130410194715779	0.014732652016468	0.0426770419084746	0.0261986695748084	0.00572870242423991	0.00375293745911708	0.0168933891216521	0.00498920336608207	-0.00402356542486893	-0.000646218795064004	-0.00390556069828171	0.00648840388986854	0.00380437128747143	0.00378909049241289	-0.0101257082631654	-0.00507459380564037	-0.00397655220569632	-0.00394021715789342	0.0121814074185854	-0.000328422820859562	-0.00950648205130106	-0.000488456331986435	-0.0031767316835104	-0.00524936767727713	0.000982227914198011	0.00865964125155745	-0.00346577314139668	0.00413887933966691	-0.00452567256531088	-0.00191668984462541	-0.00157103588191585	-0.00137454573997412	-0.00318664732822669	-0.00021865475579879	-0.00308965433571877	6.99035388329124e-05	-0.0043843802929986	0.000510522704091986	0.00137509790631002	0.000613112161211127	-0.00114714757772085	0.00297027140898673	0.00467055343662226	0.000572835384739883	-0.0047247445453849	-0.00380819903084638	0.00313084719230971	-0.00176000762086947	-0.00724596459215628	0.000526850637978508	-0.00300374057842705	-0.00200305143137747	-0.00599390012744561	-0.00223843836795339	-0.00318839420443101	-0.00214042948731803	-0.00367827320458944	-0.00641725421026339	0.00296053663312971	0.000371403490927956	0.00145085894247372	0.00118754073298696	-0.00635367253262328	0.00334629130393172	0.00568395602261544	-0.000769220863538087	0.00264611350961042
"NMA8"	-0.0409562126145423	0.028143411239409	0.0234597403896002	0.00312339576423396	-0.000888740623369369	0.00918129583505212	0.000745561398140043	-0.0105727586000749	-0.00123696730425202	-0.013386282149335	0.00816683648331306	-0.00239879221597889	-0.0117044179064448	0.00107389354824906	-0.00450290244587574	0.00533316540181981	0.00689712601505621	0.00320514642050107	0.00262106239665756	0.00365128843565682	1.53633704004066e-06	0.00591460178823235	-0.00267855264652831	4.94769593202137e-05	-0.0020112842847826	-0.0101512666341162	-0.00895999847137662	-0.00152536753217464	0.00372183313825438	0.00043251691038573	-0.00922892022304804	0.00608965702355744	0.00689620246475183	-0.00559957271230252	-0.00517362638859058	-0.00126343946603348	0.000570551647709668	-0.00343176287436266	0.00913398313900635	0.00260312177065494	0.00185889977396942	-0.00387834130829953	-0.00908989129042292	0.000404827550017487	0.00144222229169493	0.00247642886235541	0.000663500493568845	0.000718232858901029	0.00124567582664448	0.00387089276864134	-0.00133155868908387	-0.00740358240569448	-0.00291210542951329	-0.00166323934166911	-0.00790948478294044	0.000510539704088547	0.00259065310155845	0.00295849208969261	0.000593368053014243	0.00627983551896309	-0.00559792599986059	-0.00131770979893405	-0.00356895393712089	0.000249717883271467	0.0107554009050687	-0.0041086965727348	0.0028180153843746	0.00465307568761253	-0.00183273613962137	0.00381174804695385	-0.00483711129914699	0.000641865097376964	0.000870401545200531	0.000589862527000206
"NMA9"	0.00223420754359332	0.0110169400428278	0.0380436877861393	0.00109549895229864	-0.00141512058384456	-0.00425490863763455	-0.000495294188915156	-0.0184713364197713	0.0202813169582426	0.0119564498249398	0.00584214230242485	0.0111497444221808	-0.0113473994157149	0.00226106177049988	0.00660951366755125	0.00566676220215038	-0.0108732386379649	-0.00246756053985542	-0.00859690488969066	0.0045037613913722	-0.00135812941458587	0.000472421654407318	-0.00308445924351185	0.00379199140789076	0.00371719811168777	0.000983592995386321	0.00424013733891362	0.000461166068207068	0.00321059647840178	-0.00207903795203761	0.00342418616872526	0.00217586880328724	-0.00540183714892116	0.000948900078566987	0.00103509508497663	-0.00141962045376603	-0.00405169572779703	-0.00294198262383443	0.00483197491322957	-0.00612053344071584	-0.00854014292354812	0.0088392176678524	0.00595899788342628	-0.00249418274305172	-4.88903489522985e-05	0.00208998959760756	0.00273862926773742	0.00393641578708258	0.00642440034944059	-0.00533845835195429	0.00574404164773456	0.00140662349624899	-0.00860977795109568	0.0106925272434693	-0.00129068188821701	0.00575865811452227	0.0083763840822883	0.00135615684722567	-0.00612639991091078	0.00799328399170049	0.00110130966392439	0.00159927628068008	0.0081084022201639	0.00356594999576687	-0.0109289435114736	0.00144930898693364	-0.00196776764274024	0.000615975973431581	0.00301906662186592	-0.00180656460233821	0.00128185206937934	-0.00198551953131883	0.00291420799207528	-0.00279842197572573
"NMA10"	0.00516034661270359	-0.009039462174402	0.0216435013058311	0.0169727497931544	-0.00650914505076378	-0.000891519019065631	-0.00744561138077618	0.00850041094604545	0.00423480601388529	-0.0111540431090936	-0.0725698590786275	0.0088233739971426	0.0234795042810144	0.0177144952802551	-0.0129554114467484	-0.00206113266498961	-0.000292162928060953	-0.0117443755325685	0.0148346542435485	-0.00345705438027453	-0.00375480104671751	0.00736355292006699	-0.00324085211070547	0.00519556867552618	0.00247866029809022	-0.000482137109004673	0.0270302570089846	0.00597384194846398	0.00437781801003881	-0.00237343959814325	0.00105285330668908	0.00164092334883326	0.0111886567546366	-0.00814890855815933	-0.00173860014900842	0.0102101341626031	0.0120117655559839	-0.000135412181062937	0.00372470279928627	-0.0080912705193628	0.00040402643733989	0.000909436998453253	0.00779860249963469	-0.00372252504855229	-0.00244696079935406	-3.96677906654912e-05	-0.000851101596424604	-0.00720666293591524	0.00374149530079172	-0.00147995433115339	0.00394544840783846	-0.0102227030380024	-0.00382747752250781	0.00462902678898686	-0.00534668619490411	0.0019099377780488	0.00552643903304714	-0.0045112761584389	-0.00195155977203898	-0.0096513229296589	-0.00268753430260473	-0.000514138015595845	-0.00147218253597293	-0.0018409330538364	0.00715063385050119	0.00064107969866243	0.000160685110404258	-0.00297990529706611	0.00302768711235774	0.00731329621816883	0.00710094148372645	0.00167686814431452	-0.00509369361511258	-0.000117723349822186
"NMA11"	-0.00803666126817317	0.0195260437143149	0.0234551208350089	0.00357431000676172	0.00456263360744045	0.00188966500976438	0.0115230752432531	-0.0139150421912477	0.0145794915772607	0.0352729504561992	0.0277262628392914	0.00656270592037619	-0.00468016225416269	0.0120718444962656	0.00174133261857438	0.00343265662155818	-0.00899533156963138	-0.00400947074367941	-0.00351621255490056	0.00444422598738616	0.0027070911304093	-0.00784282162096789	-0.00966975832352507	0.00223985780821981	0.00351301111095744	0.0102086033311379	0.0019994160567507	-0.00248878241957867	-0.0112845448045999	0.00311186477294745	-0.00562920075503692	0.000436865291323459	0.00861051434376425	0.00347738736214249	-0.00207869921152244	0.00090853987836469	-0.000778824032218043	-0.00140085141285988	0.00115930915745099	0.000692918215522243	0.000574871096526938	-0.00525522928680172	-0.00347035729652727	-0.00125940947867159	0.00223489909885841	-0.000717681941086553	-0.00454282289809382	0.000431433091493302	0.00222094914561506	0.00183967257111562	-0.000570668539545308	0.00369340673964133	0.000602275777733149	0.00535718338528727	-0.0046390289675635	0.00405176695915133	0.00384349019295202	0.00164506651258485	0.00121873778037615	-0.0024747170660782	0.000330945230848758	0.00169799913552296	0.00413810880766427	0.00214385734632624	-0.00233128861443395	-0.00175931220026136	0.0043328019216269	-9.39435861638901e-05	-0.00111090252500417	-0.000446639726604535	0.00280141820000294	-0.00502783359838428	-0.00113651632405928	0.00152425457245938
"NMA12"	-0.0507810946739902	0.0308024529714486	-0.00662747081278244	-0.0135736827425439	0.0134194268437654	-0.00870362322190078	0.00987865369284272	-0.00348560306930438	-0.00199126683339182	0.000996821076178541	0.0368000451877506	0.00986483385493328	0.000649917120845253	0.00961662143076469	-0.0102048465989586	-0.00462621084065709	0.0103918229704625	-0.0135741277479925	-0.000923088055667946	0.0012798928830251	0.00446979037826228	0.000314646821748829	0.0132578886690467	0.000625952661578106	-0.00692167214578785	0.012522986527323	4.15242535638096e-05	0.00435879650679134	0.00617798395118514	0.00097011268889327	-0.00665551545533406	-0.0039085659349202	-0.00224895065313483	-0.000243530199372858	0.00401848123849005	-0.0147648072051042	-0.0033085496328586	0.00926388864291605	0.00179001490611308	0.00222440202877602	0.00349872945983806	0.00344007073200325	-0.00502584964723032	-0.00258032936869668	0.00111487622703412	-0.00691229061149767	0.000452299928844717	0.00367976110336583	0.00282676115310637	-0.00506628893692825	-0.00308611827353744	0.00552980393050071	0.00034903301050216	-0.0007803935895345	0.00595868051214588	-0.0088328903256307	0.00103743175180077	-0.00725988146676094	-0.00154750964820107	-0.00241419030729686	0.0013858180299682	-0.000691939884411227	0.000336614408813778	0.000335896148573191	0.00703752918673373	0.00079509602637278	-0.00313885497578121	0.00104952974119718	0.00104511703482358	0.0026839400706756	-0.00566446709876414	0.00403422738176192	0.000156039243153181	0.00381657107180878
"NMA13"	0.0141117491236026	-0.00215816910218367	0.0390292532219118	0.00220414346042514	0.00402643025307008	-0.0123253137561434	0.000352677368490722	-0.0190417812570521	0.0210024073006246	0.00508504606716789	0.00879001402572568	0.00859933402165382	-0.0156701348974893	0.00373970171195602	0.00151969506089677	0.000745600563613556	-0.00756529970098985	0.00162470424638252	0.00121062720686337	-0.00333998837036409	0.00340200527238975	-0.000188439620708462	-0.00333160309725262	-0.00335976001320563	0.00458085994805196	0.00705717739039189	-0.00170560223109482	0.00871663449901425	0.0046092251932286	0.000859707729703058	0.00771787923079535	0.00117371816308725	-0.0126288434095373	0.00517447688512099	-0.00162000206416045	0.00586475101435274	-0.00458851620397208	0.00530923117870009	0.00444858023345904	-0.00122235063516433	-0.00137814047199788	-0.00434320474371711	0.0089872961941002	0.00309598705923793	0.00013471048187885	0.001364867796836	-0.00135388759717191	-0.00126342319959564	-0.00341649279904242	-0.000845485640852103	8.50750629581662e-05	0.00042441612060907	-0.00439723971349347	0.00451157707535956	0.00575231763774045	0.00119988662238776	-0.00173651770029278	-0.00234552403237415	-0.00306417076127099	0.000345340697173818	-0.000390555252720457	0.00118266841395939	-0.00305018070102909	0.00211581074517047	-0.00759628775139207	-0.00188881563613356	-0.00106951055149601	-0.00395203060893065	0.00434394076861961	0.0032601537911356	-0.002476130937303	0.00189678955108955	-0.000735524354532648	-0.00140814949906937
"NMA15"	-0.0290761664087283	0.0211339195723842	0.0207917708532432	-0.00556356825912543	0.00995018825644556	0.0129074942874716	0.00567077203934241	-0.016932996660052	0.0136905080906455	-0.0153876936363341	0.0250847839265116	0.00230131636837994	-0.0121440099977237	0.0118023723068318	-0.00254512296913839	0.00560446440950812	-0.000143298460136777	-0.00178272923801774	0.00165834638600053	-0.00118910171223155	-0.0018119924311021	0.00913133685021797	0.00287136206800773	-0.000721805837969906	-0.00343977037835857	0.00586266670463001	-0.00295485878990569	0.00118351634548872	-0.000127072442133297	-0.00410789496484584	-0.00840001605850601	0.00300622720219962	0.0122412444207947	-0.00843601242723224	-0.000961526648156624	-0.00739873117039001	-0.00162968587209613	-0.00253771526681592	0.00557782866116281	0.00443947684326183	0.00373847376699609	0.00235088207802723	-0.00372484671190805	0.0055628472073229	0.00159157291644508	0.00277001214532313	-0.0015766739950532	-0.00204261152735986	-0.00311232230932683	-0.00420077600578923	0.00188556456082341	-0.00254345455241211	0.00292602713227734	-0.00221528589104194	-0.00810905403204285	-0.000164374440133053	0.00656418267216768	0.00201168321537479	0.00243391334795515	0.000894214601642922	-0.00373326395329044	0.000982297173752627	0.00309254460616842	0.00134376696500674	0.00682477979123697	-0.000372291184665778	9.11779310136438e-05	0.00607046842746023	-1.07272244762922e-05	0.00379972982875365	-0.00258267464307176	0.0012493559810587	0.00294493345762634	-0.00419321980300069
"NMA16"	0.0305641014532006	-0.00506333948130328	0.0298840803760642	-0.00780021829387021	0.000130604692416642	-0.00128816979222154	0.00131795923741783	0.000221963853872929	-0.0139288385876483	-0.0241241454101272	-0.060908338724083	0.000956707105191325	0.0215049971781477	0.00808949910543591	0.00271257606814113	0.0019118634351638	0.0120295645664711	0.00311446637936732	0.0174116879143475	0.00328960275768666	0.000727783164404892	-0.0127329606185201	-0.00507121530287014	0.00299149682322748	-0.00202799346049117	0.00865953832614869	0.0106281991062463	0.00244228481482256	-0.00644284801927234	0.00347766568551965	0.00108853999512365	-0.00283292806098019	-0.0178729996454491	0.00641542122688263	-0.00188371723896631	0.00685374948485645	-0.00500215513490876	0.00204206114446001	-0.00303109363586681	0.010236355665423	0.00300308359417523	0.00066871997274067	-0.00249936512165263	-0.00209728169589046	0.00077189444259392	-0.00283960416556631	-0.00144504391555267	0.00120859280142366	0.00202193207270552	-0.00163024437224522	-0.000377889777574812	0.00527322259378697	-0.000448833801954333	-0.00145162517577968	0.00607509581529008	-0.000373972018214222	-0.00351510285319013	-0.00779715047986755	0.00211219317437792	0.000384741020780497	-0.000163563930552774	-0.00226924434644068	0.00284324183222908	0.00181521371773995	-0.00944582589820271	0.000558824798043727	-0.0045179312954737	-0.00132455366308268	-0.00526244537530742	0.000374851052214805	-0.000348809166062943	-0.00467246253970764	0.001903122778448	-0.00388170700213254
"NMA17"	-0.0066572116441122	0.0149969559534286	0.0277210306602429	-0.00139540450552906	0.0091382291922332	0.00317901851433275	0.0129629570911517	-0.0154535089655494	0.0144199284921141	0.0315218375863527	0.023948227021623	0.00600325493066509	-0.00518942832897715	0.0121254901908584	0.00515797759286127	-0.00225145854709407	-0.0115528242046365	0.00235926607998559	0.00282845090013769	0.00281108820865572	0.00381223550192806	-0.0038878727132474	-0.00586373021485115	-0.00258345076165214	0.00759749636923251	0.00291765786367355	-0.00101479754911117	0.00674448044505193	-0.00974493254011018	-0.00155429042561046	-0.00396709394128973	0.000608840994861327	0.007471919966028	0.0082255428475749	0.000232224480484293	0.00435475411487106	0.00102876135530965	0.000739059333158106	0.00476832132375454	0.00411516557138829	0.00494468794324777	-0.000597062717650268	0.000276946620980396	-0.000274467352698176	-0.000711278606382926	0.00163246225739143	-0.00216209713833459	-0.00168669558670688	-0.00675278151475433	-0.000297418289348796	0.0016183549159922	0.0021114871447937	0.00485523819255476	-0.00456335889374711	0.00247245472446942	0.0054032515875386	0.00327979278261121	-0.00252639721197365	2.34660130715662e-05	-0.00254365186134555	0.00168202567116842	-0.000961072333357247	0.00145784940885314	-0.00121528131666847	-0.00346307478915856	-0.00206800989761022	0.00019112690619669	-0.00066395352660691	0.000380868995992626	0.00193108531025897	-0.00429944726905758	-0.000931798698315339	0.000951703789753456	-0.00501616649178795
"NMA18"	0.0367639339209635	-0.00249943435012097	0.0244065636193741	0.000795575926567781	0.0109053563240466	0.00822656744751496	-0.0204200895178128	-0.000879227087651172	-0.0187544035942519	-0.00407035087984894	-0.0550178867076592	0.0212316493693446	0.0201608197034679	0.00435839511975276	-0.00224308978777285	-0.0180190263915726	-0.0110175920978916	-0.0078057718284534	0.00819474212265275	0.00458978429518015	-0.00256944775005807	0.000164512623212234	-0.00234308975405295	-0.00736522860282951	-0.000291092241572897	-0.0029970540465431	0.0298956844325872	-0.0100796200196237	0.0030574043331663	-0.00156686552038748	0.00659706610572768	0.000339259624676981	-0.0120424851179201	0.0071277611172605	-0.00707628906055366	0.00538676516472413	-0.00121081298258457	0.0103212712462827	0.000782471297050369	0.00387580969005742	0.00452727733094456	-0.00656842109961002	-0.0163857406288846	0.00224613146276033	0.000362573510247948	0.00406579026301527	0.00570340397383619	0.000703614285284782	-0.00327837351901798	0.00126859192991719	-0.00376576067065533	-0.00155540153576806	-0.00857153176881479	0.0125338710701531	-0.00101726277523658	0.00932915318619703	0.000183895887825537	0.00171698023366561	0.00143665118694722	0.00190272943401729	-0.00224153099150264	-0.00601921185672069	-0.000241172669998636	-0.0012242521010653	0.00202587793086939	0.00298275923694646	-0.00503681576610226	0.00331032430164572	-0.00476233032786703	0.00448738045778199	0.00136107754204142	-0.00620113956639972	-0.00087118045703397	0.00378388722412964
"NMA19"	0.0241743136219772	-0.000803547166403229	0.0352026959203409	-0.00877457823208728	0.00305761745739884	-0.00365731706654017	-0.0010497517432425	-0.00676631792108606	-0.0111144683222721	-0.0172008123059303	-0.041473991821715	0.00252478337445194	0.0148063423737198	0.00241937371808927	-0.00407249829232832	0.00885325928137649	0.00884515273076293	-0.00379982819238259	0.0268805877777954	0.00390517470140297	-0.00198312513715951	-0.00113504543505963	-0.0141786793190792	-0.00353724732571744	-0.00449818803186015	0.00330583229538648	-0.00575821211180126	0.00450020510009795	0.00365103200198265	0.00708959224538461	-0.00754570840556582	-0.0109004006477223	-0.0219926211007427	0.00396025044892392	0.0030261343335722	0.0165511665281173	-0.00668989126709023	-0.00188507844873545	-0.0024385014948723	-0.00118664751989035	-0.000669317807199479	0.00387314859780681	-0.0120550155538284	0.00272199003198336	-0.00291081641215952	0.00028750084345688	0.000708448552907804	-0.00368825403464476	-0.00519990022312632	0.00418981983830424	-0.00135543703228612	0.0076445964176739	0.00427991697124227	-0.00116451431916058	0.0132003702587941	0.0017175942494992	0.00177677143724146	-0.00357616373942979	-0.00432801843154751	0.00324037469928636	-0.00381956434052109	-0.000219262374589278	0.00392643403991231	0.000161027689883493	-0.00538211330453476	0.00499204589023043	0.00180015810265367	-0.00466747735564432	-0.00555245729936733	0.000810509213751219	-0.00313183315961654	0.00134185615892521	0.00296322366650338	-0.00112655740396191
"NMA20"	-0.0011927149853562	-0.00836271671753516	-0.00449277621367414	-0.0174606122367474	0.00231500386157842	-0.00424652523989407	-0.000818919690839289	-0.00105514729155307	0.0167399412826292	-0.0210214619182948	0.0663196258764573	-0.0163537927089784	0.00554973540577158	0.00471382576131493	-0.0113938480191601	0.00400622497286997	0.0051992490506917	-0.00511420384698653	0.0173583116782899	0.0105412744287596	0.00120567265320909	-0.00264624268702161	-0.00284684860745305	-0.00487376269285322	0.00532378736037494	-0.00187161151794476	0.000962191313585648	-0.00267793731761406	-0.00943998233909601	0.00288858221340453	0.00846151836240569	0.00263656004745499	0.0167476374753181	-0.0037812040625607	-0.00470935641019443	-0.00804677125649701	0.00371571726487438	0.00549476874744489	0.00556024956728338	-0.00181548119077516	-0.00498896889254547	0.00716983506411578	-0.00797782574453686	-0.00241786038625082	-0.00265845219562915	-0.00591898513350125	0.00161798165199677	-0.000131872090750964	0.000557664564618044	-0.0016772744942588	-0.000552105215188803	0.00208769188104161	0.000151283936828423	0.00341566907700798	0.000191395995244899	0.00127424511158324	-0.00176843818580105	-0.00377762460171685	-0.000314213434332479	0.00343824365278737	-0.00264465814959512	-3.68837261119967e-05	-0.00422153276854823	0.00203639701298463	0.00498044215943371	-0.00549184193433446	0.00212901481255991	-0.00158115679808587	0.00405559061653562	0.000746888827703298	-0.00431468018566602	0.00127631256126098	-0.00393847905165041	-0.00323136083052901
"G2"	0.00440617956402116	-0.017503473490599	-0.0524507729891256	0.00510057343630127	0.00299372594427583	0.00542864597182561	0.00120489512807876	-0.108683827883192	-0.00184664163895232	0.00146683534499693	-0.0406056954578814	0.0149767376887109	0.0229903006309311	0.01016154747718	-0.00482141277650411	0.00308265296928425	0.0230163753136145	0.0051414985086605	-0.025019565260518	0.00267262642454555	-0.00928980900443946	0.0025218657480445	0.00172406329607987	0.00193354638937794	-0.00570517628163217	0.00267982621643869	-0.0274966926646538	-0.013422573887075	-0.0150923801855349	0.00337062227558463	0.00140219547195939	0.00437055604827047	0.0268804266695189	0.00218003240217883	-0.00289507898555946	0.0275919272863334	-0.00111066406948798	0.00212860003599983	0.00627376815503632	0.00216463064802187	0.00220041790509078	-0.00659658970899798	0.0088042777786227	-0.00032671325087912	-0.00149946549212129	-0.00135703642969245	0.00353326258341969	0.000677091575640601	-0.00357366693142721	0.00241702839599488	-0.00512946344887921	0.00544214223776351	-0.00487775443880557	-0.000984419358154834	-0.0020899823699718	-0.0032109360194456	0.000905447698230942	-0.0134100085909153	-0.00670822086719319	0.00468612390786052	0.000135647115052941	0.00487259874338565	-0.00275878355184429	-0.000510856981871915	0.0030458010709676	-0.00237903962930578	-0.00560446440206136	-9.36188807301179e-05	-0.00101955957381765	0.000882223638106929	0.00553639193906082	-0.00257464518312805	0.000757487260924332	-0.000943396408385937
"G7"	0.0202739879814422	-0.0096145299733318	-0.0686416215922033	0.00224143662328403	0.0016619710519255	0.0113519453409996	-0.0108945703537332	-0.125886113453766	0.00442027873503585	-0.00591653958247664	-0.0528848907494479	0.0153915132723633	0.00650965927043497	0.00530299480695926	-0.0150240606387528	-0.0105328881271103	0.0141227163713833	-0.00140134046527126	-0.00257040814105086	-0.00136165036183013	0.00427285554540781	-0.00633267154286089	-0.00436536433890151	-0.00119831309956173	0.0101543294216046	0.00320517239359056	-0.0159832272039529	0.000727626640844054	-0.0135085312036541	-0.00115794097566661	0.00800466575054797	-0.00184694790935742	0.0391248252872439	0.00191799562120416	-0.000712282400471377	0.013752793357791	-0.00165825185600052	0.000785112886147601	-0.00378012771767655	-0.0120051970022501	0.00044425010280648	0.00846332941037118	0.0109736930029627	0.00189503564491185	0.00956073974377233	0.001483476540318	-0.015110093056976	-0.00455269144899559	-0.000947081917437278	0.00953379029186114	-0.00132004386294782	-0.00754907801151134	0.00976976320996059	0.00479301304511452	0.00609223633624738	-0.00331780180838033	-0.00796575581242999	0.0106288351834233	0.0123108746784663	0.000617756507185913	-0.000292211660592946	0.00171355323321171	0.000955724226585269	-0.000570166576699463	-0.000637484486086152	-0.000274823177836997	-0.00109688722213157	-0.00245506856411779	0.000150016972707463	-0.0069343585652495	-0.00558508319774184	0.00112697559108502	0.00161749463419887	-0.000409359234844746
"G9"	0.0298242462942038	-0.00895431329444684	0.0318042122536066	-0.00978758530317262	0.000189810289397776	-0.00578069310479244	-0.00471389553079042	-0.00156436511814557	-0.0197104944717213	-0.0205794620879455	-0.0566282763721418	0.00658198728846476	0.0171495377590993	0.00442175487078852	0.00399752369521875	-0.000563911249123609	0.00459896786424479	0.000947778969174073	0.013999690124487	-0.00348629613524372	0.00305306681194215	-0.0152303477042554	0.00224165793648668	0.00295572035153785	-0.00238943941375037	0.00483021646945741	0.0130269932397812	-0.00294080774273208	-0.0106007314567887	-0.00740375068151013	0.00412927127481827	-0.000478034457141453	-0.0180695256466643	0.00396514244250056	6.88564211145995e-05	0.00686528647217474	-0.00261204367502225	0.00257013406482541	-0.00383418878867357	0.00811051324340661	-0.000410591175400665	-0.00499694529702382	-0.00407016063645039	0.000922640315120442	0.00144615472741143	8.52729767906711e-06	0.0021637818297977	0.00168830296657756	0.00195174248982401	-0.00316437957137094	0.00334609703545064	-0.00135316740035491	-0.000421948601949867	-0.00227307323896692	0.000805480032808605	0.00421560909561129	-0.00398708997449658	-0.00284808418011654	-0.00117257245348577	-0.00208096590808284	0.00257176671676503	0.00382976696671675	-0.00406015981220122	0.00121592053188252	-0.00612077529607873	-0.00706540458394123	0.00441784255835032	-0.00400651163014824	-0.00114322048186422	-0.00652885891902421	-0.00655031356641959	0.00337640827789037	0.00118327702291508	-0.00205097057065192
"G10"	-0.0486490634942863	0.0224412927278135	-0.00509610243159505	0.00845925593232764	-0.00685887610977557	0.00610567590598443	0.0157271909122168	-0.0113924321650392	0.0112242980737265	-0.0213738852454395	0.0339386184444721	0.0172478890972189	0.00444894046291746	0.0162748288061895	-0.00871686573852121	-0.00981947471811644	-0.0063127576588879	-0.00291458046686099	-0.0046349178145142	0.000763629682054319	-0.00172239256642354	0.00895575011687009	0.00838278633774336	-0.00798631357544705	-0.00479814879691165	0.012937125645667	-0.0156309866593064	-0.00798354773439599	0.00855983075927637	0.00840408511606272	0.0032548120784514	-0.00502213853293423	0.00890196393522882	-0.00287766601541269	-0.00627994413546795	-0.00391101544008571	0.00155922921944879	-0.00523302087415898	0.000842636634081927	0.000784550142676536	-0.00209503703755686	-0.00609814440098032	-0.0155163482120632	-0.00196794580104712	-0.000217767570943078	-0.00263753725133478	0.000545317161502611	0.00401648924722268	0.00400502455265179	-0.00753901888653726	-0.000448757522661833	0.00654756498018338	-0.00753155240349495	-0.0051450460910106	0.00292764453346179	-0.00269898006457607	-0.00635253992282977	-0.000925852270095455	-5.61891363762128e-05	0.00497999883899136	0.00449527647116433	0.000154234842686006	0.00388060036007167	-0.00267235560531768	-0.00034679005931126	0.00594086350376949	-0.000742555731203987	-0.0026418997664932	-0.0026780427302109	0.00220588796513665	-0.00988898012546885	0.00617794019641266	-0.000318425017133651	0.00149085191815525
